{"learner":{"attributes":{"scikit_learn":"{\"_estimator_type\": \"classifier\"}"},"feature_names":["Open","High","Low","Close","Volume","trade_count","vwap","rsi","macd_hist","bbl","bbu","atr","oc_change","hl_change","sma_50_dist","Sentiment"],"feature_types":["float","float","float","float","float","float","float","float","float","float","float","float","float","float","float","float"],"gradient_booster":{"model":{"cats":{"enc":[],"feature_segments":[],"sorted_idx":[]},"gbtree_model_param":{"num_parallel_tree":"1","num_trees":"100"},"iteration_indptr":[0,1,2,3,4,5,6,7,8,9,10,11,12,13,14,15,16,17,18,19,20,21,22,23,24,25,26,27,28,29,30,31,32,33,34,35,36,37,38,39,40,41,42,43,44,45,46,47,48,49,50,51,52,53,54,55,56,57,58,59,60,61,62,63,64,65,66,67,68,69,70,71,72,73,74,75,76,77,78,79,80,81,82,83,84,85,86,87,88,89,90,91,92,93,94,95,96,97,98,99,100],"tree_info":[0,0,0,0,0,0,0,0,0,0,0,0,0,0,0,0,0,0,0,0,0,0,0,0,0,0,0,0,0,0,0,0,0,0,0,0,0,0,0,0,0,0,0,0,0,0,0,0,0,0,0,0,0,0,0,0,0,0,0,0,0,0,0,0,0,0,0,0,0,0,0,0,0,0,0,0,0,0,0,0,0,0,0,0,0,0,0,0,0,0,0,0,0,0,0,0,0,0,0,0],"trees":[{"base_weights":[3.762519E-8,5.94374E0,-9.0655893E-1,7.37916E-1,4.64819E-2,-1.00312665E-1,1.0381668E-1,9.599771E-2,-6.262827E-2],"categories":[],"categories_nodes":[],"categories_segments":[],"categories_sizes":[],"default_left":[0,0,0,0,0,0,0,0,0],"id":0,"left_children":[1,3,5,-1,-1,-1,7,-1,-1],"loss_changes":[1.8677954E2,3.264731E1,3.0386734E0,0E0,0E0,0E0,2.8077643E0,0E0,0E0],"parents":[2147483647,0,0,1,1,2,2,6,6],"right_children":[2,4,6,-1,-1,-1,8,-1,-1],"split_conditions":[3.462353E1,2.156E2,4.39122E-2,7.37916E-1,4.64819E-2,-1.00312665E-1,2.3397E2,9.599771E-2,-6.262827E-2],"split_indices":[7,0,12,0,0,0,1,0,0],"split_type":[0,0,0,0,0,0,0,0,0],"sum_hessian":[3.266358E1,3.5873299E0,2.9076254E1,2.567773E0,1.0195569E0,2.6546242E1,2.5300117E0,1.0195569E0,1.5104547E0],"tree_param":{"num_deleted":"0","num_feature":"16","num_nodes":"9","size_leaf_vector":"1"}},{"base_weights":[-6.022282E-3,3.5032928E0,-8.9183635E-1,4.1589537E0,2.861145E-2,-9.958481E-2,1.0061235E-1,1.395989E-1,4.7688584E0,9.738376E-2,-6.300281E-2,5.7495135E-1,1.5134855E-1],"categories":[],"categories_nodes":[],"categories_segments":[],"categories_sizes":[],"default_left":[0,0,0,0,0,0,0,0,0,0,0,0,0],"id":1,"left_children":[1,3,5,7,-1,-1,9,-1,11,-1,-1,-1,-1],"loss_changes":[1.0799196E2,1.3579826E1,2.9629402E0,3.0199432E0,0E0,0E0,2.8714764E0,0E0,4.9946976E0,0E0,0E0,0E0,0E0],"parents":[2147483647,0,0,1,1,2,2,3,3,6,6,8,8],"right_children":[2,4,6,8,-1,-1,10,-1,12,-1,-1,-1,-1],"split_conditions":[3.462353E1,-1.5732256E-1,4.39122E-2,2.1048068E2,2.861145E-2,-9.958481E-2,-1.552375E-2,1.395989E-1,2.9980085E1,9.738376E-2,-6.300281E-2,5.7495135E-1,1.5134855E-1],"split_indices":[7,14,12,10,0,0,14,0,7,0,0,0,0],"split_type":[0,0,0,0,0,0,0,0,0,0,0,0,0],"sum_hessian":[3.273466E1,6.00195E0,2.6732712E1,4.742662E0,1.2592878E0,2.419371E1,2.5390015E0,1.4523138E0,3.2903483E0,1.0050093E0,1.5339922E0,1.939829E0,1.3505193E0],"tree_param":{"num_deleted":"0","num_feature":"16","num_nodes":"13","size_leaf_vector":"1"}},{"base_weights":[5.8858376E-3,2.6506605E0,-8.7674236E-1,3.0467541E0,-6.5669245E-3,-9.886629E-2,9.8023795E-2,2.5818953E-2,3.5815623E0,9.73739E-2,-6.304259E-2,9.865029E-2,4.1645095E-1],"categories":[],"categories_nodes":[],"categories_segments":[],"categories_sizes":[],"default_left":[0,0,0,0,0,0,0,0,0,0,0,0,0],"id":2,"left_children":[1,3,5,7,-1,-1,9,-1,11,-1,-1,-1,-1],"loss_changes":[7.967247E1,9.387993E0,2.8892689E0,1.0221474E1,0E0,0E0,2.8758633E0,0E0,5.261116E0,0E0,0E0,0E0,0E0],"parents":[2147483647,0,0,1,1,2,2,3,3,6,6,8,8],"right_children":[2,4,6,8,-1,-1,10,-1,12,-1,-1,-1,-1],"split_conditions":[3.462353E1,2.1632912E2,4.39122E-2,8.383283E0,-6.5669245E-3,-9.886629E-2,5.0112835E1,2.5818953E-2,2.1048068E2,9.73739E-2,-6.304259E-2,9.865029E-2,4.1645095E-1],"split_indices":[7,9,12,11,0,0,7,0,10,0,0,0,0],"split_type":[0,0,0,0,0,0,0,0,0,0,0,0,0],"sum_hessian":[3.2134888E1,7.5395775E0,2.4595312E1,6.473912E0,1.0656657E0,2.2049393E1,2.545919E0,1.2804155E0,5.193496E0,1.0031914E0,1.5427276E0,1.4464986E0,3.7469976E0],"tree_param":{"num_deleted":"0","num_feature":"16","num_nodes":"13","size_leaf_vector":"1"}},{"base_weights":[8.138759E-3,1.9831643E0,-9.002268E-1,2.3322732E0,-5.4953057E-2,-1.5325843E-1,-9.814686E-2,2.7265973E0,1.3149221E-2,-6.0893852E-2,4.7904328E-2,1.0241883E0,3.4203663E0,1.7152862E-1,-1.9901678E-2,8.8551655E-2,3.849112E-1],"categories":[],"categories_nodes":[],"categories_segments":[],"categories_sizes":[],"default_left":[0,0,0,0,0,0,0,0,0,0,0,0,0,0,0,0,0],"id":3,"left_children":[1,3,5,7,-1,9,-1,11,-1,-1,-1,13,15,-1,-1,-1,-1],"loss_changes":[6.0368687E1,1.0653534E1,1.2486706E0,7.891056E0,0E0,1.2847621E0,0E0,5.9584923E0,0E0,0E0,0E0,3.5087905E0,2.3126183E0,0E0,0E0,0E0,0E0],"parents":[2147483647,0,0,1,1,2,2,3,3,5,5,7,7,11,11,12,12],"right_children":[2,4,6,8,-1,10,-1,12,-1,-1,-1,14,16,-1,-1,-1,-1],"split_conditions":[3.624141E1,2.2088263E2,4.076031E1,-1.079068E0,-5.4953057E-2,1.053546E6,-9.814686E-2,9.1659155E0,1.3149221E-2,-6.0893852E-2,4.7904328E-2,1.7129445E2,2.1048068E2,1.7152862E-1,-1.9901678E-2,8.8551655E-2,3.849112E-1],"split_indices":[7,6,7,8,0,5,0,11,0,0,0,9,10,0,0,0,0],"split_type":[0,0,0,0,0,0,0,0,0,0,0,0,0,0,0,0,0],"sum_hessian":[3.165436E1,9.599437E0,2.2054922E1,8.506084E0,1.0933526E0,2.4465816E0,1.9608341E1,7.0109725E0,1.4951112E0,1.4433521E0,1.0032295E0,2.7468543E0,4.264118E0,1.4981356E0,1.2487189E0,1.0603622E0,3.203756E0],"tree_param":{"num_deleted":"0","num_feature":"16","num_nodes":"17","size_leaf_vector":"1"}},{"base_weights":[1.3531989E-2,1.65107E0,-8.8684964E-1,7.766073E-1,2.6975155E-1,-9.7357504E-2,-1.25196E-1,2.2267678E-1,-3.492377E-1,4.7175065E-2,-5.9019268E-2,-7.913205E-2,2.8955529E-2],"categories":[],"categories_nodes":[],"categories_segments":[],"categories_sizes":[],"default_left":[0,0,0,0,0,0,0,0,0,0,0,0,0],"id":4,"left_children":[1,3,5,7,-1,-1,9,-1,11,-1,-1,-1,-1],"loss_changes":[4.8624866E1,8.608934E0,1.2843437E0,1.3474066E1,0E0,0E0,1.201045E0,0E0,1.7095301E0,0E0,0E0,0E0,0E0],"parents":[2147483647,0,0,1,1,2,2,3,3,6,6,8,8],"right_children":[2,4,6,8,-1,-1,10,-1,12,-1,-1,-1,-1],"split_conditions":[3.624141E1,1.9345314E-3,4.39122E-2,2.741396E1,2.6975155E-1,-9.7357504E-2,6.466877E-2,2.2267678E-1,-1.5992302E-2,4.7175065E-2,-5.9019268E-2,-7.913205E-2,2.8955529E-2],"split_indices":[7,12,12,7,0,0,13,0,12,0,0,0,0],"split_type":[0,0,0,0,0,0,0,0,0,0,0,0,0],"sum_hessian":[3.098611E1,1.0697201E1,2.028891E1,6.776529E0,3.9206722E0,1.7965086E1,2.3238246E0,2.534311E0,4.242218E0,1.0111809E0,1.3126438E0,2.366018E0,1.8762E0],"tree_param":{"num_deleted":"0","num_feature":"16","num_nodes":"13","size_leaf_vector":"1"}},{"base_weights":[1.5838608E-2,1.3932438E0,-8.73124E-1,1.6232668E0,-5.50203E-2,-9.174471E-2,-9.675544E-2,1.8536988E0,9.137345E-3,-5.6524392E-2,4.8001878E-2,7.483918E-1,2.2653608E0,1.3134864E-1,-2.5474166E-2,6.557254E-2,2.5268358E-1],"categories":[],"categories_nodes":[],"categories_segments":[],"categories_sizes":[],"default_left":[0,0,0,0,0,0,0,0,0,0,0,0,0,0,0,0,0],"id":5,"left_children":[1,3,5,7,-1,9,-1,11,-1,-1,-1,13,15,-1,-1,-1,-1],"loss_changes":[3.9626537E1,6.5657825E0,1.3633022E0,3.9252663E0,0E0,1.1448665E0,0E0,2.8688889E0,0E0,0E0,0E0,2.7242172E0,1.211628E0,0E0,0E0,0E0,0E0],"parents":[2147483647,0,0,1,1,2,2,3,3,5,5,7,7,11,11,12,12],"right_children":[2,4,6,8,-1,10,-1,12,-1,-1,-1,14,16,-1,-1,-1,-1],"split_conditions":[3.624141E1,2.2088263E2,4.076031E1,-1.079068E0,-5.50203E-2,-1.7816578E-4,-9.675544E-2,9.1659155E0,9.137345E-3,-5.6524392E-2,4.8001878E-2,1.7129445E2,2.1048068E2,1.3134864E-1,-2.5474166E-2,6.557254E-2,2.5268358E-1],"split_indices":[7,6,7,8,0,12,0,11,0,0,0,9,10,0,0,0,0],"split_type":[0,0,0,0,0,0,0,0,0,0,0,0,0,0,0,0,0],"sum_hessian":[3.0368938E1,1.168944E1,1.8679499E1,1.0599634E1,1.089806E0,2.2266107E0,1.6452888E1,9.03108E0,1.5685533E0,1.2242035E0,1.0024071E0,3.2154949E0,5.815586E0,1.8589246E0,1.3565702E0,1.3028787E0,4.512707E0],"tree_param":{"num_deleted":"0","num_feature":"16","num_nodes":"17","size_leaf_vector":"1"}},{"base_weights":[1.8347278E-2,1.2148222E0,-8.630313E-1,1.4928374E0,-6.2146306E-2,-9.299823E-2,-9.611904E-2,1.7392502E0,-5.484916E-2,-5.7392832E-2,4.669742E-2,7.3903245E-1,2.4699643E0,1.8549927E-1,-5.785738E-1,1.0031531E-1,2.8176013E-1,-1.2282352E-2,-7.1521044E-2],"categories":[],"categories_nodes":[],"categories_segments":[],"categories_sizes":[],"default_left":[0,0,0,0,0,0,0,0,0,0,0,0,0,0,0,0,0,0,0],"id":6,"left_children":[1,3,5,7,-1,9,-1,11,-1,-1,-1,13,15,-1,17,-1,-1,-1,-1],"loss_changes":[3.3331837E1,7.7691116E0,1.2872248E0,6.956232E0,0E0,1.1207078E0,0E0,6.1317787E0,0E0,0E0,0E0,9.92944E0,1.6377258E-1,0E0,1.3161588E-1,0E0,0E0,0E0,0E0],"parents":[2147483647,0,0,1,1,2,2,3,3,5,5,7,7,11,11,12,12,14,14],"right_children":[2,4,6,8,-1,10,-1,12,-1,-1,-1,14,16,-1,18,-1,-1,-1,-1],"split_conditions":[-1.4490658E-1,2.2632E2,-1.0469273E-1,-3.1864157E-1,-6.2146306E-2,4.4863652E-2,-9.611904E-2,-4.0852507E-3,-5.484916E-2,-5.7392832E-2,4.669742E-2,2.7334265E1,2.8310738E1,1.8549927E-1,-1.9338983E0,1.0031531E-1,2.8176013E-1,-1.2282352E-2,-7.1521044E-2],"split_indices":[14,1,14,8,0,13,0,12,0,0,0,7,7,0,8,0,0,0,0],"split_type":[0,0,0,0,0,0,0,0,0,0,0,0,0,0,0,0,0,0,0],"sum_hessian":[2.9613516E1,1.240091E1,1.7212606E1,1.0932721E1,1.4681895E0,2.1662607E0,1.5046345E1,9.887199E0,1.0455216E0,1.1519718E0,1.0142888E0,5.022995E0,4.8642044E0,2.4987786E0,2.5242167E0,1.6764145E0,3.1877897E0,1.0202124E0,1.5040042E0],"tree_param":{"num_deleted":"0","num_feature":"16","num_nodes":"19","size_leaf_vector":"1"}},{"base_weights":[2.0149695E-2,1.0698583E0,-8.4818375E-1,1.3034173E0,-6.1289966E-2,-8.824574E-2,-9.533486E-2,1.517092E0,-5.3628992E-2,-5.700296E-2,4.7164705E-2,6.655374E-1,2.0988016E-1,1.6249294E0,-5.581867E-1,5.5862088E-2,1.932119E-1,-1.1711663E-2,-6.9366656E-2],"categories":[],"categories_nodes":[],"categories_segments":[],"categories_sizes":[],"default_left":[0,0,0,0,0,0,0,0,0,0,0,0,0,0,0,0,0,0,0],"id":7,"left_children":[1,3,5,7,-1,9,-1,11,-1,-1,-1,13,-1,15,17,-1,-1,-1,-1],"loss_changes":[2.8097221E1,6.2802534E0,1.2651443E0,5.7535706E0,0E0,1.1197358E0,0E0,4.3097973E0,0E0,0E0,0E0,8.115551E0,0E0,1.3179207E-1,1.24476194E-1,0E0,0E0,0E0,0E0],"parents":[2147483647,0,0,1,1,2,2,3,3,5,5,7,7,11,11,13,13,14,14],"right_children":[2,4,6,8,-1,10,-1,12,-1,-1,-1,14,-1,16,18,-1,-1,-1,-1],"split_conditions":[-1.4490658E-1,-3.1864157E-1,-1.0469273E-1,2.2088263E2,-6.1289966E-2,4.6850245E-2,-9.533486E-2,-4.0852507E-3,-5.3628992E-2,-5.700296E-2,4.7164705E-2,2.7334265E1,2.0988016E-1,1.0294919E1,-1.9338983E0,5.5862088E-2,1.932119E-1,-1.1711663E-2,-6.9366656E-2],"split_indices":[14,8,14,6,0,13,0,12,0,0,0,7,0,11,8,0,0,0,0],"split_type":[0,0,0,0,0,0,0,0,0,0,0,0,0,0,0,0,0,0,0],"sum_hessian":[2.8829807E1,1.2946725E1,1.5883083E1,1.1566742E1,1.3799825E0,2.1543708E0,1.3728713E1,1.0520223E1,1.0465194E0,1.1482257E0,1.0061452E0,5.139989E0,5.380234E0,2.6973934E0,2.4425955E0,1.2336538E0,1.4637396E0,1.0120873E0,1.4305081E0],"tree_param":{"num_deleted":"0","num_feature":"16","num_nodes":"19","size_leaf_vector":"1"}},{"base_weights":[1.9709814E-2,9.5029277E-1,-8.328678E-1,1.1511365E0,-5.9688535E-2,-8.370058E-2,-9.4529465E-2,4.676289E-1,1.6349915E0,-5.652537E-2,4.7243934E-2,1.3971555E-1,-6.0241675E-1,5.9972465E-2,1.8243961E-1,-7.498319E-2,-9.258217E-3],"categories":[],"categories_nodes":[],"categories_segments":[],"categories_sizes":[],"default_left":[0,0,0,0,0,0,0,0,0,0,0,0,0,0,0,0,0],"id":8,"left_children":[1,3,5,7,-1,9,-1,11,13,-1,-1,-1,15,-1,-1,-1,-1],"loss_changes":[2.380898E1,5.142576E0,1.2409773E0,3.5454445E0,0E0,1.1085892E0,0E0,7.6074553E0,3.235531E-1,0E0,0E0,0E0,2.207501E-1,0E0,0E0,0E0,0E0],"parents":[2147483647,0,0,1,1,2,2,3,3,5,5,7,7,8,8,12,12],"right_children":[2,4,6,8,-1,10,-1,12,14,-1,-1,-1,16,-1,-1,-1,-1],"split_conditions":[-1.4490658E-1,-3.1864157E-1,-1.0469273E-1,-4.0852507E-3,-5.9688535E-2,4.715112E-2,-9.4529465E-2,2.7334265E1,1.060558E6,-5.652537E-2,4.7243934E-2,1.3971555E-1,2.7644733E2,5.9972465E-2,1.8243961E-1,-7.498319E-2,-9.258217E-3],"split_indices":[14,8,14,12,0,13,0,7,5,0,0,0,10,0,0,0,0],"split_type":[0,0,0,0,0,0,0,0,0,0,0,0,0,0,0,0,0],"sum_hessian":[2.8011446E1,1.3338236E1,1.4673209E1,1.2032269E1,1.3059676E0,2.1422956E0,1.2530914E1,5.802273E0,6.2299953E0,1.1393566E0,1.002939E0,2.9414225E0,2.8608503E0,1.6078748E0,4.6221204E0,1.8540341E0,1.0068164E0],"tree_param":{"num_deleted":"0","num_feature":"16","num_nodes":"17","size_leaf_vector":"1"}},{"base_weights":[1.9370355E-2,7.475545E-1,-9.380466E-2,4.2517415E-1,2.1297131E-1,1.2918156E0,-1.7320973E-1,4.626574E-1,1.6717869E-1,3.4055263E-1,-7.2068214E-1,1.3873716E-3,7.2401576E-2,8.6627233E-1,-6.510191E-2,-8.184823E-2,-2.2939984E-2,7.2901933E-3,1.21856764E-1],"categories":[],"categories_nodes":[],"categories_segments":[],"categories_sizes":[],"default_left":[0,0,0,0,0,0,0,0,0,0,0,0,0,0,0,0,0,0,0],"id":9,"left_children":[1,3,-1,5,-1,7,9,11,-1,13,15,-1,-1,17,-1,-1,-1,-1,-1],"loss_changes":[2.038706E1,6.4888144E0,0E0,7.849866E0,0E0,1.1561565E0,2.9402695E0,3.7788326E-1,0E0,3.49451E0,5.0517797E-2,0E0,0E0,1.0579424E0,0E0,0E0,0E0,0E0,0E0],"parents":[2147483647,0,0,1,1,3,3,5,5,6,6,7,7,9,9,10,10,13,13],"right_children":[2,4,-1,6,-1,8,10,12,-1,14,16,-1,-1,18,-1,-1,-1,-1,-1],"split_conditions":[4.076031E1,4.1517735E-2,-9.380466E-2,2.7835278E1,2.1297131E-1,1.8069664E2,4.5074962E-2,-2.8938496E0,1.6717869E-1,-1.5732256E-1,1.370604E8,1.3873716E-3,7.2401576E-2,3.7318666E-2,-6.510191E-2,-8.184823E-2,-2.2939984E-2,7.2901933E-3,1.21856764E-1],"split_indices":[7,12,0,7,0,9,13,8,0,14,4,0,0,13,0,0,0,0,0],"split_type":[0,0,0,0,0,0,0,0,0,0,0,0,0,0,0,0,0,0,0],"sum_hessian":[2.7236523E1,1.5594776E1,1.1641747E1,1.3705634E1,1.8891424E0,5.124688E0,8.580946E0,2.3073318E0,2.8173566E0,4.62174E0,3.959206E0,1.236756E0,1.0705757E0,3.1029541E0,1.5187856E0,2.746454E0,1.2127521E0,1.3253022E0,1.7776519E0],"tree_param":{"num_deleted":"0","num_feature":"16","num_nodes":"19","size_leaf_vector":"1"}},{"base_weights":[2.6342817E-2,6.9022536E-1,-9.2954636E-2,3.9550775E-1,1.8832083E-1,1.1721506E0,-1.6496605E-1,4.336824E-1,1.5021263E-1,-6.857308E-1,3.3624288E-1,1.3103421E-3,6.746149E-2,-1.0620142E-2,-8.170762E-2,9.5539814E-1,-5.2653547E-2,1.0030209E-2,1.3890575E-1],"categories":[],"categories_nodes":[],"categories_segments":[],"categories_sizes":[],"default_left":[0,0,0,0,0,0,0,0,0,0,0,0,0,0,0,0,0,0,0],"id":10,"left_children":[1,3,-1,5,-1,7,9,11,-1,13,15,-1,-1,-1,-1,17,-1,-1,-1],"loss_changes":[1.7995167E1,5.1308784E0,0E0,6.577682E0,0E0,8.767071E-1,2.6829488E0,3.298791E-1,0E0,2.8901815E-1,3.4190574E0,0E0,0E0,0E0,0E0,1.1709118E0,0E0,0E0,0E0],"parents":[2147483647,0,0,1,1,3,3,5,5,6,6,7,7,9,9,10,10,15,15],"right_children":[2,4,-1,6,-1,8,10,12,-1,14,16,-1,-1,-1,-1,18,-1,-1,-1],"split_conditions":[4.076031E1,4.1517735E-2,-9.2954636E-2,2.7835278E1,1.8832083E-1,1.8069664E2,-3.1884366E-3,-2.8938496E0,1.5021263E-1,-4.2587237E0,9.998456E-3,1.3103421E-3,6.746149E-2,-1.0620142E-2,-8.170762E-2,3.721857E-2,-5.2653547E-2,1.0030209E-2,1.3890575E-1],"split_indices":[7,12,0,7,0,9,12,8,0,8,12,0,0,0,0,13,0,0,0],"split_type":[0,0,0,0,0,0,0,0,0,0,0,0,0,0,0,0,0,0,0],"sum_hessian":[2.6345762E1,1.5711655E1,1.0634108E1,1.3666881E1,2.0447733E0,5.271232E0,8.395649E0,2.3426933E0,2.9285388E0,3.9369433E0,4.458706E0,1.2372677E0,1.1054256E0,1.0615739E0,2.8753693E0,2.533349E0,1.9253569E0,1.2667816E0,1.2665673E0],"tree_param":{"num_deleted":"0","num_feature":"16","num_nodes":"19","size_leaf_vector":"1"}},{"base_weights":[3.358655E-2,6.415989E-1,-9.207203E-2,3.7145206E-1,1.6825287E0,1.070002E0,-1.5251455E-1,2.001744E-1,5.1962327E-2,3.0440792E-2,1.3235018E0,3.213324E-1,-6.8919504E-1,4.5689218E-2,1.5301454E-1,7.8491384E-1,-6.685702E-2,-7.850343E-2,-2.16878E-2,1.1380255E-1,-1.561321E-2],"categories":[],"categories_nodes":[],"categories_segments":[],"categories_sizes":[],"default_left":[0,0,0,0,0,0,0,0,0,0,0,0,0,0,0,0,0,0,0,0,0],"id":11,"left_children":[1,3,-1,5,7,9,11,-1,-1,-1,13,15,17,-1,-1,19,-1,-1,-1,-1,-1],"loss_changes":[1.5959597E1,4.0904236E0,0E0,5.505856E0,1.3729286E-1,8.3550453E-1,2.565102E0,0E0,0E0,0E0,1.058383E-1,3.0838177E0,3.9753437E-2,0E0,0E0,1.5925469E0,0E0,0E0,0E0,0E0,0E0],"parents":[2147483647,0,0,1,1,3,3,4,4,5,5,6,6,10,10,11,11,12,12,15,15],"right_children":[2,4,-1,6,8,10,12,-1,-1,-1,14,16,18,-1,-1,20,-1,-1,-1,-1,-1],"split_conditions":[4.076031E1,4.1517735E-2,-9.207203E-2,2.7835278E1,1.1604284E1,4.3736275E-2,4.5074962E-2,2.001744E-1,5.1962327E-2,3.0440792E-2,1.687E2,-4.8904963E-2,1.370604E8,4.5689218E-2,1.5301454E-1,3.2565907E1,-6.685702E-2,-7.850343E-2,-2.16878E-2,1.1380255E-1,-1.561321E-2],"split_indices":[7,12,0,7,11,13,13,0,0,0,0,15,4,0,0,7,0,0,0,0,0],"split_type":[0,0,0,0,0,0,0,0,0,0,0,0,0,0,0,0,0,0,0,0,0],"sum_hessian":[2.5487522E1,1.5768624E1,9.718898E0,1.3596774E1,2.17185E0,5.3808846E0,8.215889E0,1.1381108E0,1.0337391E0,1.8859514E0,3.4949334E0,4.576477E0,3.6394122E0,1.2911595E0,2.203774E0,3.2578652E0,1.3186119E0,2.4750922E0,1.16432E0,2.216748E0,1.0411172E0],"tree_param":{"num_deleted":"0","num_feature":"16","num_nodes":"21","size_leaf_vector":"1"}},{"base_weights":[4.1110463E-2,5.9981E-1,-9.1153726E-2,7.5902843E-1,-6.247719E-2,4.9565288E-1,1.6007811E-1,1.2436843E-1,6.477235E-2,-4.6712622E-1,4.0192977E-1,2.222915E-2,-7.830983E-2,9.419708E-2,-2.159602E-2],"categories":[],"categories_nodes":[],"categories_segments":[],"categories_sizes":[],"default_left":[0,0,0,0,0,0,0,0,0,0,0,0,0,0,0],"id":12,"left_children":[1,3,-1,5,-1,7,-1,-1,9,11,13,-1,-1,-1,-1],"loss_changes":[1.4211587E1,3.7471328E0,0E0,2.5999355E0,0E0,4.1439905E0,0E0,0E0,1.8683704E0,1.0668201E0,2.2967196E0,0E0,0E0,0E0,0E0],"parents":[2147483647,0,0,1,1,3,3,5,5,8,8,9,9,10,10],"right_children":[2,4,-1,6,-1,8,-1,-1,10,12,14,-1,-1,-1,-1],"split_conditions":[4.076031E1,2.1831673E2,-9.1153726E-2,4.1517735E-2,-6.247719E-2,-4.0008764E0,1.6007811E-1,1.2436843E-1,1.0978608E8,2.922999E-2,1.410052E6,2.222915E-2,-7.830983E-2,9.419708E-2,-2.159602E-2],"split_indices":[7,9,0,12,0,8,0,0,4,13,5,0,0,0,0],"split_type":[0,0,0,0,0,0,0,0,0,0,0,0,0,0,0],"sum_hessian":[2.467402E1,1.5786237E1,8.887783E0,1.4306323E1,1.4799144E0,1.2107003E1,2.1993194E0,3.7355363E0,8.371468E0,3.0982277E0,5.2732396E0,1.0668834E0,2.0313444E0,2.5340035E0,2.739236E0],"tree_param":{"num_deleted":"0","num_feature":"16","num_nodes":"15","size_leaf_vector":"1"}},{"base_weights":[4.1720696E-2,5.555688E-1,-9.035885E-2,7.288711E-1,-6.455408E-2,4.7596115E-1,1.5271398E-1,9.36926E-1,1.7307198E-2,2.4316741E-2,1.1745157E0,-5.7847446E-1,4.9118564E-1,4.094468E-2,1.3561843E-1,-7.156362E-2,-1.0578821E-2,1.02293365E-1,-4.2782348E-2],"categories":[],"categories_nodes":[],"categories_segments":[],"categories_sizes":[],"default_left":[0,0,0,0,0,0,0,0,0,0,0,0,0,0,0,0,0,0,0],"id":13,"left_children":[1,3,-1,5,-1,7,-1,9,11,-1,13,15,17,-1,-1,-1,-1,-1,-1],"loss_changes":[1.2613102E1,3.9616933E0,0E0,2.3271065E0,0E0,2.7196426E0,0E0,7.7507925E-1,2.4030597E0,0E0,7.465887E-2,1.6963565E-1,2.7447243E0,0E0,0E0,0E0,0E0,0E0,0E0],"parents":[2147483647,0,0,1,1,3,3,5,5,7,7,8,8,10,10,11,11,12,12],"right_children":[2,4,-1,6,-1,8,-1,10,12,-1,14,16,18,-1,-1,-1,-1,-1,-1],"split_conditions":[-1.0469273E-1,-3.1864157E-1,-9.035885E-2,4.1517735E-2,-6.455408E-2,2.7835278E1,1.5271398E-1,4.3736275E-2,-4.0852507E-3,2.4316741E-2,1.687E2,-1.6364512E-1,9.998456E-3,4.094468E-2,1.3561843E-1,-7.156362E-2,-1.0578821E-2,1.02293365E-1,-4.2782348E-2],"split_indices":[14,8,0,12,0,7,0,13,12,0,0,14,12,0,0,0,0,0,0],"split_type":[0,0,0,0,0,0,0,0,0,0,0,0,0,0,0,0,0,0,0],"sum_hessian":[2.3933014E1,1.5772006E1,8.161007E0,1.4126877E1,1.6451294E0,1.194019E1,2.186686E0,5.4350166E0,6.505174E0,1.9026833E0,3.5323334E0,2.7841234E0,3.7210507E0,1.3021871E0,2.2301462E0,1.7595648E0,1.0245585E0,2.2855341E0,1.4355166E0],"tree_param":{"num_deleted":"0","num_feature":"16","num_nodes":"19","size_leaf_vector":"1"}},{"base_weights":[4.4060633E-2,5.1740533E-1,-8.935369E-2,6.76291E-1,-6.294103E-2,7.939294E-1,-2.936311E-2,1.4670461E-1,1.0407219E0,1.04732074E-1,-5.7343036E-1,1.2761667E0,5.822957E-1,-1.2243143E-2,-7.144608E-2,3.8426336E-2,1.4347124E-1,1.02968946E-1,-3.7771795E-2],"categories":[],"categories_nodes":[],"categories_segments":[],"categories_sizes":[],"default_left":[0,0,0,0,0,0,0,0,0,0,0,0,0,0,0,0,0,0,0],"id":14,"left_children":[1,3,-1,5,-1,7,-1,9,11,-1,13,15,17,-1,-1,-1,-1,-1,-1],"loss_changes":[1.1187439E1,3.467188E0,0E0,1.9609427E0,0E0,2.0476093E0,0E0,3.8217793E0,3.1554985E-1,0E0,1.2916923E-1,2.4636936E-1,2.6083417E0,0E0,0E0,0E0,0E0,0E0,0E0],"parents":[2147483647,0,0,1,1,3,3,5,5,7,7,8,8,10,10,11,11,12,12],"right_children":[2,4,-1,6,-1,8,-1,10,12,-1,14,16,18,-1,-1,-1,-1,-1,-1],"split_conditions":[-1.0469273E-1,-3.1864157E-1,-8.935369E-2,2.1632912E2,-6.294103E-2,2.1172546E2,-2.936311E-2,1.9736421E2,-3.3878584E0,1.04732074E-1,1.4280125E8,4.2685315E-2,1.8335E2,-1.2243143E-2,-7.144608E-2,3.8426336E-2,1.4347124E-1,1.02968946E-1,-3.7771795E-2],"split_indices":[14,8,0,9,0,10,0,10,8,0,4,13,2,0,0,0,0,0,0],"split_type":[0,0,0,0,0,0,0,0,0,0,0,0,0,0,0,0,0,0,0],"sum_hessian":[2.3166187E1,1.5692175E1,7.474013E0,1.4143018E1,1.5491573E0,1.277503E1,1.367988E0,3.9666774E0,8.808352E0,1.5606083E0,2.406069E0,4.6409755E0,4.1673765E0,1.0181773E0,1.3878918E0,1.2172086E0,3.423767E0,2.7931237E0,1.3742532E0],"tree_param":{"num_deleted":"0","num_feature":"16","num_nodes":"19","size_leaf_vector":"1"}},{"base_weights":[4.291786E-2,4.791986E-1,-8.822618E-2,6.0936505E-1,-5.919224E-2,3.9095393E-1,1.2812693E-1,1.0283998E0,2.3104217E-2,1.2465333E-1,1.48464115E-2,-4.647807E-1,3.2437333E-1,1.7307533E-2,-7.604395E-2,-1.81552E-2,8.151244E-2],"categories":[],"categories_nodes":[],"categories_segments":[],"categories_sizes":[],"default_left":[0,0,0,0,0,0,0,0,0,0,0,0,0,0,0,0,0],"id":15,"left_children":[1,3,-1,5,-1,7,-1,9,11,-1,-1,13,15,-1,-1,-1,-1],"loss_changes":[9.8799715E0,2.6709242E0,0E0,1.7395501E0,0E0,3.0153694E0,0E0,7.208252E-1,1.5090977E0,0E0,0E0,8.744664E-1,1.7127458E0,0E0,0E0,0E0,0E0],"parents":[2147483647,0,0,1,1,3,3,5,5,7,7,8,8,11,11,12,12],"right_children":[2,4,-1,6,-1,8,-1,10,12,-1,-1,14,16,-1,-1,-1,-1],"split_conditions":[4.076031E1,2.1831673E2,-8.822618E-2,4.1517735E-2,-5.919224E-2,-4.0008764E0,1.2812693E-1,2.156E2,1.0978608E8,1.2465333E-1,1.48464115E-2,2.922999E-2,2.1411046E2,1.7307533E-2,-7.604395E-2,-1.81552E-2,8.151244E-2],"split_indices":[7,9,0,12,0,8,0,0,4,0,0,13,10,0,0,0,0],"split_type":[0,0,0,0,0,0,0,0,0,0,0,0,0,0,0,0,0],"sum_hessian":[2.2429886E1,1.5569791E1,6.860094E0,1.4267098E1,1.3026929E0,1.196091E1,2.3061883E0,3.7195697E0,8.241341E0,2.6468139E0,1.0727558E0,2.939033E0,5.302307E0,1.0621517E0,1.8768812E0,2.9210203E0,2.3812869E0],"tree_param":{"num_deleted":"0","num_feature":"16","num_nodes":"17","size_leaf_vector":"1"}},{"base_weights":[4.3951053E-2,4.5215204E-1,-8.7344185E-2,5.901324E-1,-6.0136963E-2,3.7750882E-1,1.2398362E-1,7.781259E-1,-1.7660048E-2,1.83354E-2,9.8865175E-1,-5.686077E-1,4.1417783E-1,3.362467E-2,1.14925936E-1,-6.9270514E-2,-1.27308415E-2,8.773943E-2,-4.2354852E-2],"categories":[],"categories_nodes":[],"categories_segments":[],"categories_sizes":[],"default_left":[0,0,0,0,0,0,0,0,0,0,0,0,0,0,0,0,0,0,0],"id":16,"left_children":[1,3,-1,5,-1,7,-1,9,11,-1,13,15,17,-1,-1,-1,-1,-1,-1],"loss_changes":[8.892355E0,2.7334476E0,0E0,1.6002874E0,0E0,2.027228E0,0E0,6.123276E-1,1.9914988E0,0E0,8.019066E-2,1.12494946E-1,2.201703E0,0E0,0E0,0E0,0E0,0E0,0E0],"parents":[2147483647,0,0,1,1,3,3,5,5,7,7,8,8,10,10,11,11,12,12],"right_children":[2,4,-1,6,-1,8,-1,10,12,-1,14,16,18,-1,-1,-1,-1,-1,-1],"split_conditions":[-1.0469273E-1,-3.1864157E-1,-8.7344185E-2,4.1517735E-2,-6.0136963E-2,2.7835278E1,1.2398362E-1,4.3736275E-2,-4.0852507E-3,1.83354E-2,1.687E2,1.957961E2,9.998456E-3,3.362467E-2,1.14925936E-1,-6.9270514E-2,-1.27308415E-2,8.773943E-2,-4.2354852E-2],"split_indices":[14,8,0,12,0,7,0,13,12,0,0,9,12,0,0,0,0,0,0],"split_type":[0,0,0,0,0,0,0,0,0,0,0,0,0,0,0,0,0,0,0],"sum_hessian":[2.1691229E1,1.5362638E1,6.3285904E0,1.39725E1,1.3901385E0,1.1718518E1,2.2539818E0,5.3379135E0,6.3806047E0,1.884581E0,3.4533327E0,2.6644847E0,3.71612E0,1.2933201E0,2.1600125E0,1.6350105E0,1.0294741E0,2.3624587E0,1.3536613E0],"tree_param":{"num_deleted":"0","num_feature":"16","num_nodes":"19","size_leaf_vector":"1"}},{"base_weights":[4.4205952E-2,4.2222184E-1,-8.621315E-2,5.534071E-1,-5.950051E-2,9.7348964E-1,2.3237903E-1,2.543093E-2,1.09116726E-1,-4.2349246E-1,5.3610164E-1,1.5850803E-2,-7.0743255E-2,-1.2519403E-1,8.798451E-1,4.085604E-2,-6.0156383E-2,1.0188877E-1,1.7820826E-2],"categories":[],"categories_nodes":[],"categories_segments":[],"categories_sizes":[],"default_left":[0,0,0,0,0,0,0,0,0,0,0,0,0,0,0,0,0,0,0],"id":17,"left_children":[1,3,-1,5,-1,7,9,-1,-1,11,13,-1,-1,15,17,-1,-1,-1,-1],"loss_changes":[7.908799E0,2.4926002E0,0E0,1.7801447E0,0E0,2.4138021E-1,2.168584E0,0E0,0E0,7.1424764E-1,1.7247782E0,0E0,0E0,1.0860693E0,2.8652573E-1,0E0,0E0,0E0,0E0],"parents":[2147483647,0,0,1,1,3,3,5,5,6,6,9,9,10,10,13,13,14,14],"right_children":[2,4,-1,6,-1,8,10,-1,-1,12,14,-1,-1,16,18,-1,-1,-1,-1],"split_conditions":[-1.0469273E-1,2.2451E2,-8.621315E-2,-3.3878584E0,-5.950051E-2,1.858E2,1.0978608E8,2.543093E-2,1.09116726E-1,1.7291E2,-4.595034E-3,1.5850803E-2,-7.0743255E-2,2.5867338E1,1.410052E6,4.085604E-2,-6.0156383E-2,1.0188877E-1,1.7820826E-2],"split_indices":[14,0,0,8,0,0,4,0,0,0,12,0,0,7,5,0,0,0,0],"split_type":[0,0,0,0,0,0,0,0,0,0,0,0,0,0,0,0,0,0,0],"sum_hessian":[2.1021507E1,1.52113085E1,5.8101993E0,1.3877572E1,1.333736E0,5.1309857E0,8.746587E0,1.1660151E0,3.9649706E0,2.6435823E0,6.1030045E0,1.0116758E0,1.6319065E0,2.3048034E0,3.798201E0,1.154064E0,1.1507393E0,2.7926307E0,1.0055704E0],"tree_param":{"num_deleted":"0","num_feature":"16","num_nodes":"19","size_leaf_vector":"1"}},{"base_weights":[4.1122116E-2,3.9074445E-1,-8.496781E-2,1.2597805E-1,2.2010253E-1,-5.180531E-1,4.8897126E-1,1.657199E-2,-8.222129E-2,6.6545635E-1,-5.6216665E-2,8.882055E-1,1.7953853E-1,3.1653762E-2,1.20804764E-1,6.313228E-2,-6.0959067E-2],"categories":[],"categories_nodes":[],"categories_segments":[],"categories_sizes":[],"default_left":[0,0,0,0,0,0,0,0,0,0,0,0,0,0,0,0,0],"id":18,"left_children":[1,3,-1,-1,5,7,9,-1,-1,11,-1,13,15,-1,-1,-1,-1],"loss_changes":[6.9990363E0,2.1040487E0,0E0,0E0,3.1577282E0,1.0498563E0,2.4594991E0,0E0,0E0,9.319248E-1,0E0,8.354454E-1,1.9616264E0,0E0,0E0,0E0,0E0],"parents":[2147483647,0,0,1,1,4,4,5,5,6,6,9,9,11,11,12,12],"right_children":[2,4,-1,-1,6,8,10,-1,-1,12,-1,14,16,-1,-1,-1,-1],"split_conditions":[4.076031E1,1.156E2,-8.496781E-2,1.2597805E-1,2.121293E2,8.172615E0,2.1831673E2,1.657199E-2,-8.222129E-2,1.1604284E1,-5.6216665E-2,9.1659155E0,-1.7152128E0,3.1653762E-2,1.20804764E-1,6.313228E-2,-6.0959067E-2],"split_indices":[7,2,0,0,10,11,9,0,0,11,0,11,8,0,0,0,0],"split_type":[0,0,0,0,0,0,0,0,0,0,0,0,0,0,0,0,0],"sum_hessian":[2.0406858E1,1.50581665E1,5.348692E0,1.4239174E0,1.3634249E1,3.3928063E0,1.0241443E1,1.1846911E0,2.2081153E0,9.083285E0,1.1581571E0,5.6605463E0,3.4227395E0,2.744625E0,2.9159212E0,2.303779E0,1.1189605E0],"tree_param":{"num_deleted":"0","num_feature":"16","num_nodes":"17","size_leaf_vector":"1"}},{"base_weights":[4.0497404E-2,3.6962447E-1,-8.397608E-2,4.8555157E-1,-5.666196E-2,1.1540852E-2,6.777551E-1,1.0368816E-1,-4.8503914E-1,8.3278507E-1,8.025363E-2,-7.909258E-2,1.9847898E-2,2.665571E-1,1.1411841E-1,7.275804E-2,-5.9676927E-2,-1.9830432E-2,6.496169E-2],"categories":[],"categories_nodes":[],"categories_segments":[],"categories_sizes":[],"default_left":[0,0,0,0,0,0,0,0,0,0,0,0,0,0,0,0,0,0,0],"id":19,"left_children":[1,3,-1,5,-1,7,9,-1,11,13,15,-1,-1,17,-1,-1,-1,-1,-1],"loss_changes":[6.3220325E0,1.9897118E0,0E0,1.3219137E0,0E0,3.164892E0,8.934941E-1,0E0,1.0358571E0,1.1146064E0,1.8552057E0,0E0,0E0,8.7130916E-1,0E0,0E0,0E0,0E0,0E0],"parents":[2147483647,0,0,1,1,3,3,5,5,6,6,8,8,9,9,10,10,13,13],"right_children":[2,4,-1,6,-1,8,10,-1,12,14,16,-1,-1,18,-1,-1,-1,-1,-1],"split_conditions":[-1.0469273E-1,2.2451E2,-8.397608E-2,2.1172546E2,-5.666196E-2,9.632897E1,-1.5847913E0,1.0368816E-1,-1.385781E-1,4.3736275E-2,1.6838614E2,-7.909258E-2,1.9847898E-2,1.9345314E-3,1.1411841E-1,7.275804E-2,-5.9676927E-2,-1.9830432E-2,6.496169E-2],"split_indices":[14,0,0,10,0,9,8,0,15,13,9,0,0,12,0,0,0,0,0],"split_type":[0,0,0,0,0,0,0,0,0,0,0,0,0,0,0,0,0,0,0],"sum_hessian":[1.9750044E1,1.4797412E1,4.9526324E0,1.3595394E1,1.2020177E0,4.2281103E0,9.367284E0,1.0245563E0,3.203554E0,7.1248612E0,2.2424226E0,2.1045783E0,1.0989758E0,3.1696444E0,3.9552171E0,1.108177E0,1.1342456E0,1.6498215E0,1.5198227E0],"tree_param":{"num_deleted":"0","num_feature":"16","num_nodes":"19","size_leaf_vector":"1"}},{"base_weights":[4.0467616E-2,3.493428E-1,-8.271964E-2,4.6051097E-1,-5.5143584E-2,2.7199563E-1,1.0317329E-1,6.117256E-1,-5.940348E-2,9.696136E-3,8.148634E-1,-5.354004E-1,2.996822E-1,2.6114335E-2,9.6385986E-2,-6.464882E-2,-1.3498525E-2,6.9225214E-2,-4.25009E-2],"categories":[],"categories_nodes":[],"categories_segments":[],"categories_sizes":[],"default_left":[0,0,0,0,0,0,0,0,0,0,0,0,0,0,0,0,0,0,0],"id":20,"left_children":[1,3,-1,5,-1,7,-1,9,11,-1,13,15,17,-1,-1,-1,-1,-1,-1],"loss_changes":[5.6621833E0,1.8049642E0,0E0,1.2627275E0,0E0,1.4024558E0,0E0,5.567825E-1,1.3661081E0,0E0,9.683967E-2,6.361359E-2,1.6204547E0,0E0,0E0,0E0,0E0,0E0,0E0],"parents":[2147483647,0,0,1,1,3,3,5,5,7,7,8,8,10,10,11,11,12,12],"right_children":[2,4,-1,6,-1,8,-1,10,12,-1,14,16,18,-1,-1,-1,-1,-1,-1],"split_conditions":[-1.0469273E-1,-3.1864157E-1,-8.271964E-2,4.1517735E-2,-5.5143584E-2,2.7835278E1,1.0317329E-1,4.3736275E-2,-4.0852507E-3,9.696136E-3,1.687E2,-1.604385E-1,9.998456E-3,2.6114335E-2,9.6385986E-2,-6.464882E-2,-1.3498525E-2,6.9225214E-2,-4.25009E-2],"split_indices":[14,8,0,12,0,7,0,13,12,0,0,15,12,0,0,0,0,0,0],"split_type":[0,0,0,0,0,0,0,0,0,0,0,0,0,0,0,0,0,0,0],"sum_hessian":[1.9049294E1,1.4488856E1,4.560437E0,1.3332242E1,1.1566142E0,1.1133964E1,2.1982791E0,5.080183E0,6.05378E0,1.8555123E0,3.224671E0,2.391992E0,3.661788E0,1.2673738E0,1.9572971E0,1.3914227E0,1.0005693E0,2.4041867E0,1.257601E0],"tree_param":{"num_deleted":"0","num_feature":"16","num_nodes":"19","size_leaf_vector":"1"}},{"base_weights":[3.888754E-2,3.26528E-1,-8.142318E-2,4.3506387E-1,-5.5264063E-2,1.0976177E-1,2.7627143E-1,-4.157455E-1,6.2349033E-1,3.2149244E-2,-8.242948E-2,7.8956807E-1,2.0456308E-1,2.952435E-2,1.1822479E-1,5.4953028E-2,-3.288796E-2],"categories":[],"categories_nodes":[],"categories_segments":[],"categories_sizes":[],"default_left":[0,0,0,0,0,0,0,0,0,0,0,0,0,0,0,0,0],"id":21,"left_children":[1,3,-1,5,-1,-1,7,9,11,-1,-1,13,15,-1,-1,-1,-1],"loss_changes":[5.05187E0,1.7003329E0,0E0,1.1883862E0,0E0,0E0,3.328364E0,1.731112E0,4.580834E-1,0E0,0E0,8.209894E-1,8.9433914E-1,0E0,0E0,0E0,0E0],"parents":[2147483647,0,0,1,1,3,3,6,6,7,7,8,8,11,11,12,12],"right_children":[2,4,-1,6,-1,-1,8,10,12,-1,-1,14,16,-1,-1,-1,-1],"split_conditions":[-1.0469273E-1,2.3315E2,-8.142318E-2,1.156E2,-5.5264063E-2,1.0976177E-1,2.3468605E2,8.172615E0,1.1604284E1,3.2149244E-2,-8.242948E-2,4.3736275E-2,-1.9338983E0,2.952435E-2,1.1822479E-1,5.4953028E-2,-3.288796E-2],"split_indices":[14,1,0,2,0,0,10,11,11,0,0,13,8,0,0,0,0],"split_type":[0,0,0,0,0,0,0,0,0,0,0,0,0,0,0,0,0],"sum_hessian":[1.850352E1,1.4299506E1,4.204014E0,1.317781E1,1.1216961E0,1.4046588E0,1.1773151E1,3.8675864E0,7.905565E0,1.4550315E0,2.4125547E0,5.0276766E0,2.877888E0,3.0013275E0,2.026349E0,1.7293756E0,1.1485124E0],"tree_param":{"num_deleted":"0","num_feature":"16","num_nodes":"17","size_leaf_vector":"1"}},{"base_weights":[4.0065847E-2,3.112896E-1,-8.006281E-2,1.0415701E-1,1.6058356E-1,-5.6159347E-2,3.5603532E-1,-1.7253783E-2,7.295917E-1,6.280506E-2,-3.5756892E-1,9.823395E-1,-3.0136735E-3,-7.720124E-2,1.3562815E-2,3.3732112E-2,1.1691449E-1],"categories":[],"categories_nodes":[],"categories_segments":[],"categories_sizes":[],"default_left":[0,0,0,0,0,0,0,0,0,0,0,0,0,0,0,0,0],"id":22,"left_children":[1,3,-1,-1,5,-1,7,9,11,-1,13,15,-1,-1,-1,-1,-1],"loss_changes":[4.5614195E0,1.4856733E0,0E0,0E0,2.1240962E0,0E0,1.5939358E0,1.6847578E0,1.1224344E0,0E0,1.1247774E0,1.2377596E-1,0E0,0E0,0E0,0E0,0E0],"parents":[2147483647,0,0,1,1,4,4,6,6,7,7,8,8,10,10,11,11],"right_children":[2,4,-1,-1,6,-1,8,10,12,-1,14,16,-1,-1,-1,-1,-1],"split_conditions":[4.076031E1,1.156E2,-8.006281E-2,1.0415701E-1,2.0837086E2,-5.6159347E-2,1.9345314E-3,2.5867338E1,1.312983E1,6.280506E-2,-1.7633438E-1,-3.4645917E0,-3.0136735E-3,-7.720124E-2,1.3562815E-2,3.3732112E-2,1.1691449E-1],"split_indices":[7,2,0,0,10,0,12,7,11,0,14,8,0,0,0,0,0],"split_type":[0,0,0,0,0,0,0,0,0,0,0,0,0,0,0,0,0],"sum_hessian":[1.7911783E1,1.4018783E1,3.8930016E0,1.3869127E0,1.2631869E1,2.291536E0,1.0340333E1,5.649094E0,4.6912394E0,1.6585882E0,3.9905057E0,3.300282E0,1.3909574E0,1.8611889E0,2.1293168E0,1.3712484E0,1.9290338E0],"tree_param":{"num_deleted":"0","num_feature":"16","num_nodes":"17","size_leaf_vector":"1"}},{"base_weights":[4.2458158E-2,3.0006042E-1,-7.892678E-2,4.0157822E-1,-5.2866932E-2,9.9074565E-2,2.5631002E-1,-3.888175E-1,5.730815E-1,2.984785E-2,-7.91394E-2,6.8792385E-1,1.07184695E-2,2.644804E-2,9.573724E-2],"categories":[],"categories_nodes":[],"categories_segments":[],"categories_sizes":[],"default_left":[0,0,0,0,0,0,0,0,0,0,0,0,0,0,0],"id":23,"left_children":[1,3,-1,5,-1,-1,7,9,11,-1,-1,13,-1,-1,-1],"loss_changes":[4.175992E0,1.4542612E0,0E0,9.202807E-1,0E0,0E0,2.7476401E0,1.526823E0,3.912418E-1,0E0,0E0,5.2119756E-1,0E0,0E0,0E0],"parents":[2147483647,0,0,1,1,3,3,6,6,7,7,8,8,11,11],"right_children":[2,4,-1,6,-1,-1,8,10,12,-1,-1,14,-1,-1,-1],"split_conditions":[-1.0469273E-1,2.2451E2,-7.892678E-2,1.156E2,-5.2866932E-2,9.9074565E-2,2.3468605E2,8.172615E0,1.3164511E1,2.984785E-2,-7.91394E-2,2.6875256E2,1.07184695E-2,2.644804E-2,9.573724E-2],"split_indices":[14,0,0,2,0,0,10,11,11,0,0,10,0,0,0],"split_type":[0,0,0,0,0,0,0,0,0,0,0,0,0,0,0],"sum_hessian":[1.7385447E1,1.3762238E1,3.6232102E0,1.2719546E1,1.0426911E0,1.364678E0,1.1354868E1,3.6644723E0,7.690396E0,1.4490947E0,2.2153776E0,5.7872863E0,1.9031098E0,3.0211122E0,2.7661738E0],"tree_param":{"num_deleted":"0","num_feature":"16","num_nodes":"15","size_leaf_vector":"1"}},{"base_weights":[4.126374E-2,2.8265783E-1,-7.752733E-2,9.443273E-2,1.441049E-1,-5.27622E-2,3.246381E-1,5.242495E-1,-2.3421097E-1,-1.775126E-2,7.139323E-1,1.2136074E-2,-5.530659E-2,8.460052E-2,1.9564861E-2],"categories":[],"categories_nodes":[],"categories_segments":[],"categories_sizes":[],"default_left":[0,0,0,0,0,0,0,0,0,0,0,0,0,0,0],"id":24,"left_children":[1,3,-1,-1,5,-1,7,9,11,-1,13,-1,-1,-1,-1],"loss_changes":[3.7475915E0,1.1977521E0,0E0,0E0,1.7732927E0,0E0,1.3533337E0,1.2497654E0,4.7463444E-1,0E0,3.027339E-1,0E0,0E0,0E0,0E0],"parents":[2147483647,0,0,1,1,4,4,6,6,7,7,8,8,10,10],"right_children":[2,4,-1,-1,6,-1,8,10,12,-1,14,-1,-1,-1,-1],"split_conditions":[-1.0469273E-1,1.156E2,-7.752733E-2,9.443273E-2,2.0837086E2,-5.27622E-2,2.156E2,-1.8954655E-2,1.3684909E1,-1.775126E-2,-1.5847913E0,1.2136074E-2,-5.530659E-2,8.460052E-2,1.9564861E-2],"split_indices":[14,2,0,0,10,0,0,12,11,0,8,0,0,0,0],"split_type":[0,0,0,0,0,0,0,0,0,0,0,0,0,0,0],"sum_hessian":[1.6901196E1,1.3549399E1,3.3517962E0,1.3390461E0,1.2210354E1,2.1792474E0,1.0031106E1,7.436741E0,2.594365E0,1.5960517E0,5.840689E0,1.5193949E0,1.0749701E0,4.150665E0,1.6900245E0],"tree_param":{"num_deleted":"0","num_feature":"16","num_nodes":"15","size_leaf_vector":"1"}},{"base_weights":[3.7962496E-2,2.6409382E-1,-7.604929E-2,9.016606E-2,1.3075195E-1,-4.974934E-2,2.9403046E-1,-4.3889623E-2,6.3680655E-1,5.8282305E-2,-3.6673892E-1,8.621056E-1,-3.919497E-3,-7.545098E-2,9.396127E-3,2.4710916E-2,1.05050385E-1],"categories":[],"categories_nodes":[],"categories_segments":[],"categories_sizes":[],"default_left":[0,0,0,0,0,0,0,0,0,0,0,0,0,0,0,0,0],"id":25,"left_children":[1,3,-1,-1,5,-1,7,9,11,-1,13,15,-1,-1,-1,-1,-1],"loss_changes":[3.3515759E0,1.1013054E0,0E0,0E0,1.4828992E0,0E0,1.2987051E0,1.520829E0,8.730893E-1,0E0,9.4222736E-1,2.2434068E-1,0E0,0E0,0E0,0E0,0E0],"parents":[2147483647,0,0,1,1,4,4,6,6,7,7,8,8,10,10,11,11],"right_children":[2,4,-1,-1,6,-1,8,10,12,-1,14,16,-1,-1,-1,-1,-1],"split_conditions":[4.076031E1,1.156E2,-7.604929E-2,9.016606E-2,2.0837086E2,-4.974934E-2,1.9345314E-3,2.5867338E1,1.312983E1,5.8282305E-2,-1.7633438E-1,-3.4645917E0,-3.919497E-3,-7.545098E-2,9.396127E-3,2.4710916E-2,1.05050385E-1],"split_indices":[7,2,0,0,10,0,12,7,11,0,14,8,0,0,0,0,0],"split_type":[0,0,0,0,0,0,0,0,0,0,0,0,0,0,0,0,0],"sum_hessian":[1.6450201E1,1.3341099E1,3.1091015E0,1.3109314E0,1.2030168E1,2.0593855E0,9.970782E0,5.4600453E0,4.5107365E0,1.5826224E0,3.877423E0,3.1766987E0,1.3340375E0,1.7590699E0,2.1183531E0,1.2870286E0,1.8896701E0],"tree_param":{"num_deleted":"0","num_feature":"16","num_nodes":"17","size_leaf_vector":"1"}},{"base_weights":[3.9299805E-2,2.5536078E-1,-7.487171E-2,8.6221725E-2,1.2725541E-1,-4.1136953E-1,3.179278E-1,1.7112842E-2,-7.121416E-2,5.3026766E-1,-2.2844519E-1,2.1136846E-1,8.598018E-2,-4.3538697E-2,1.36862E-2,6.81453E-2,-7.184207E-2],"categories":[],"categories_nodes":[],"categories_segments":[],"categories_sizes":[],"default_left":[0,0,0,0,0,0,0,0,0,0,0,0,0,0,0,0,0],"id":26,"left_children":[1,3,-1,-1,5,7,9,-1,-1,11,13,15,-1,-1,-1,-1,-1],"loss_changes":[3.0840516E0,9.849094E-1,0E0,0E0,1.4452847E0,7.8451806E-1,1.283279E0,0E0,0E0,6.079676E-1,3.2435644E-1,2.7383113E0,0E0,0E0,0E0,0E0,0E0],"parents":[2147483647,0,0,1,1,4,4,5,5,6,6,9,9,10,10,11,11],"right_children":[2,4,-1,-1,6,8,10,-1,-1,12,14,16,-1,-1,-1,-1,-1],"split_conditions":[-1.0469273E-1,1.156E2,-7.487171E-2,8.6221725E-2,2.121293E2,8.172615E0,2.156E2,1.7112842E-2,-7.121416E-2,2.6875256E2,1.243818E6,1.8335E2,8.598018E-2,-4.3538697E-2,1.36862E-2,6.81453E-2,-7.184207E-2],"split_indices":[14,2,0,0,10,11,0,0,0,10,5,2,0,0,0,0,0],"split_type":[0,0,0,0,0,0,0,0,0,0,0,0,0,0,0,0,0],"sum_hessian":[1.5990861E1,1.3080384E1,2.9104762E0,1.2810943E0,1.179929E1,2.7822695E0,9.01702E0,1.0941983E0,1.6880713E0,6.514668E0,2.5023527E0,4.144926E0,2.369742E0,1.4749658E0,1.0273869E0,2.930438E0,1.2144878E0],"tree_param":{"num_deleted":"0","num_feature":"16","num_nodes":"17","size_leaf_vector":"1"}},{"base_weights":[3.644013E-2,2.405547E-1,-7.339812E-2,-9.148167E-2,4.3222982E-1,3.47109E-1,-4.835112E-1,-8.466283E-2,6.0885507E-1,7.526117E-2,-1.815548E-2,-1.3511275E-3,-6.656934E-2,2.6392022E-2,-3.9427713E-2,7.49045E-1,-9.828347E-3,8.766902E-3,9.893109E-2],"categories":[],"categories_nodes":[],"categories_segments":[],"categories_sizes":[],"default_left":[0,0,0,0,0,0,0,0,0,0,0,0,0,0,0,0,0,0,0],"id":27,"left_children":[1,3,-1,5,7,9,11,13,15,-1,-1,-1,-1,-1,-1,17,-1,-1,-1],"loss_changes":[2.7713203E0,9.1766226E-1,0E0,1.1780074E0,8.661326E-1,8.5587025E-1,2.9241937E-1,4.440568E-1,7.449665E-1,0E0,0E0,0E0,0E0,0E0,0E0,8.297889E-1,0E0,0E0,0E0],"parents":[2147483647,0,0,1,1,3,3,4,4,5,5,6,6,7,7,8,8,15,15],"right_children":[2,4,-1,6,8,10,12,14,16,-1,-1,-1,-1,-1,-1,18,-1,-1,-1],"split_conditions":[-1.0469273E-1,1.0978608E8,-7.339812E-2,-3.3878584E0,4.2685315E-2,1.972515E2,1.6775E2,1.2397077E8,1.1604284E1,7.526117E-2,-1.815548E-2,-1.3511275E-3,-6.656934E-2,2.6392022E-2,-3.9427713E-2,-1.7922757E-2,-9.828347E-3,8.766902E-3,9.893109E-2],"split_indices":[14,4,0,8,13,9,2,4,11,0,0,0,0,0,0,12,0,0,0],"split_type":[0,0,0,0,0,0,0,0,0,0,0,0,0,0,0,0,0,0,0],"sum_hessian":[1.55004015E1,1.27975855E1,2.702816E0,4.8751497E0,7.9224353E0,2.3550153E0,2.5201347E0,2.1502895E0,5.7721457E0,1.0930209E0,1.2619944E0,1.0040404E0,1.5160943E0,1.0809137E0,1.069376E0,4.7676907E0,1.0044551E0,1.6341834E0,3.1335073E0],"tree_param":{"num_deleted":"0","num_feature":"16","num_nodes":"19","size_leaf_vector":"1"}},{"base_weights":[3.309827E-2,2.8677818E-1,-5.429671E-1,3.9743042E-1,-2.6171226E-2,-7.6542124E-2,5.435912E-3,8.851618E-2,1.7686784E-1,-2.8993765E-1,4.156389E-1,-6.274798E-2,2.262071E-2,-2.1648211E-2,6.457924E-1,7.97876E-2,2.0007072E-2],"categories":[],"categories_nodes":[],"categories_segments":[],"categories_sizes":[],"default_left":[0,0,0,0,0,0,0,0,0,0,0,0,0,0,0,0,0],"id":28,"left_children":[1,3,5,7,-1,-1,-1,-1,9,11,13,-1,-1,-1,15,-1,-1],"loss_changes":[2.5146317E0,8.238889E-1,7.43299E-1,9.479269E-1,0E0,0E0,0E0,0E0,1.0478113E0,7.3507136E-1,1.0003654E0,0E0,0E0,0E0,1.5133166E-1,0E0,0E0],"parents":[2147483647,0,0,1,1,2,2,3,3,8,8,9,9,10,10,14,14],"right_children":[2,4,6,8,-1,-1,-1,-1,10,12,14,-1,-1,-1,16,-1,-1],"split_conditions":[-1.4490658E-1,2.156E2,1.318911E6,-4.0008764E0,-2.6171226E-2,-7.6542124E-2,5.435912E-3,8.851618E-2,-4.0852507E-3,1.547085E6,2.877723E1,-6.274798E-2,2.262071E-2,-2.1648211E-2,-1.2879907E0,7.97876E-2,2.0007072E-2],"split_indices":[14,0,5,8,0,0,0,0,12,5,7,0,0,0,8,0,0],"split_type":[0,0,0,0,0,0,0,0,0,0,0,0,0,0,0,0,0],"sum_hessian":[1.5141932E1,1.08612E1,4.2807317E0,9.267075E0,1.5941253E0,2.914071E0,1.3666606E0,1.947455E0,7.3196197E0,2.4044828E0,4.915137E0,1.3233496E0,1.0811332E0,1.3277761E0,3.5873609E0,2.0856464E0,1.5017143E0],"tree_param":{"num_deleted":"0","num_feature":"16","num_nodes":"17","size_leaf_vector":"1"}},{"base_weights":[3.210406E-2,2.1685661E-1,-7.075118E-2,7.910002E-2,9.563863E-2,-3.6686406E-1,3.0734354E-1,-7.37889E-2,2.470364E-2,5.199393E-1,-1.9591933E-1,6.9288963E-1,8.489582E-3,-3.8735818E-2,1.2450959E-2,8.611048E-2,6.568555E-3],"categories":[],"categories_nodes":[],"categories_segments":[],"categories_sizes":[],"default_left":[0,0,0,0,0,0,0,0,0,0,0,0,0,0,0,0,0],"id":29,"left_children":[1,3,-1,-1,5,7,9,-1,-1,11,13,15,-1,-1,-1,-1,-1],"loss_changes":[2.302955E0,8.536001E-1,0E0,0E0,1.3035785E0,1.1559613E0,1.0527177E0,0E0,0E0,4.318633E-1,2.5468588E-1,4.210372E-1,0E0,0E0,0E0,0E0,0E0],"parents":[2147483647,0,0,1,1,4,4,5,5,6,6,9,9,10,10,11,11],"right_children":[2,4,-1,-1,6,8,10,-1,-1,12,14,16,-1,-1,-1,-1,-1],"split_conditions":[-1.0469273E-1,1.156E2,-7.075118E-2,7.910002E-2,2.3468605E2,-1.18039496E-1,2.156E2,-7.37889E-2,2.470364E-2,-1.4436762E-1,1.243818E6,1.1473134E1,8.489582E-3,-3.8735818E-2,1.2450959E-2,8.611048E-2,6.568555E-3],"split_indices":[14,2,0,0,10,15,0,0,0,15,5,11,0,0,0,0,0],"split_type":[0,0,0,0,0,0,0,0,0,0,0,0,0,0,0,0,0],"sum_hessian":[1.4730629E1,1.2351965E1,2.378664E0,1.1900253E0,1.116194E1,3.274775E0,7.8871646E0,1.915269E0,1.359506E0,5.5215383E0,2.3656266E0,3.526784E0,1.9947541E0,1.3501258E0,1.0155008E0,2.4868808E0,1.0399032E0],"tree_param":{"num_deleted":"0","num_feature":"16","num_nodes":"17","size_leaf_vector":"1"}},{"base_weights":[3.1492546E-2,2.090527E-1,-6.993451E-2,3.238882E-1,-5.3863384E-2,-4.7452066E-2,5.3807414E-1,2.6490378E-1,-6.06105E-2,-1.0471552E-2,7.039702E-1,-1.7867165E-2,7.463338E-2,2.0521576E-2,8.813493E-2],"categories":[],"categories_nodes":[],"categories_segments":[],"categories_sizes":[],"default_left":[0,0,0,0,0,0,0,0,0,0,0,0,0,0,0],"id":30,"left_children":[1,3,-1,5,-1,7,9,11,-1,-1,13,-1,-1,-1,-1],"loss_changes":[2.135476E0,1.2994933E0,0E0,9.7860813E-1,0E0,1.085809E0,8.9275026E-1,1.0082033E0,0E0,0E0,3.706901E-1,0E0,0E0,0E0,0E0],"parents":[2147483647,0,0,1,1,3,3,5,5,6,6,7,7,10,10],"right_children":[2,4,-1,6,-1,8,10,12,-1,-1,14,-1,-1,-1,-1],"split_conditions":[2.2451E2,-3.1864157E-1,-6.993451E-2,4.2685315E-2,-5.3863384E-2,-1.5732256E-1,1.19538E6,-1.7633438E-1,-6.06105E-2,-1.0471552E-2,-1.8954655E-2,-1.7867165E-2,7.463338E-2,2.0521576E-2,8.813493E-2],"split_indices":[0,8,0,13,0,14,5,14,0,0,12,0,0,0,0],"split_type":[0,0,0,0,0,0,0,0,0,0,0,0,0,0,0],"sum_hessian":[1.4329522E1,1.2103001E1,2.2265213E0,1.09829645E1,1.1200364E0,4.3023357E0,6.680629E0,3.09671E0,1.2056259E0,1.4461372E0,5.2344913E0,1.9390237E0,1.1576864E0,1.9390904E0,3.2954009E0],"tree_param":{"num_deleted":"0","num_feature":"16","num_nodes":"15","size_leaf_vector":"1"}},{"base_weights":[2.657379E-2,1.9378075E-1,-6.838008E-2,3.0246451E-1,-5.2493036E-2,1.6387366E-2,5.540087E-1,2.8912145E-1,-6.1825562E-2,6.6755027E-1,2.1086317E-3,-1.611768E-1,7.5122505E-2,2.0942675E-2,8.345433E-2,3.5279658E-2,-5.0919086E-2],"categories":[],"categories_nodes":[],"categories_segments":[],"categories_sizes":[],"default_left":[0,0,0,0,0,0,0,0,0,0,0,0,0,0,0,0,0],"id":31,"left_children":[1,3,-1,5,-1,7,9,11,-1,13,-1,15,-1,-1,-1,-1,-1],"loss_changes":[1.9147984E0,1.1683956E0,0E0,8.445159E-1,0E0,1.3177564E0,3.6600602E-1,1.220581E0,0E0,2.1887851E-1,0E0,8.0559456E-1,0E0,0E0,0E0,0E0,0E0],"parents":[2147483647,0,0,1,1,3,3,5,5,6,6,7,7,9,9,11,11],"right_children":[2,4,-1,6,-1,8,10,12,-1,14,-1,16,-1,-1,-1,-1,-1],"split_conditions":[2.2451E2,-3.1864157E-1,-6.838008E-2,4.9910467E-2,-5.2493036E-2,-1.5732256E-1,-1.5476589E0,-1.8364294E-1,-6.1825562E-2,-2.3150183E-2,2.1086317E-3,3.6837645E-2,7.5122505E-2,2.0942675E-2,8.345433E-2,3.5279658E-2,-5.0919086E-2],"split_indices":[0,8,0,13,0,14,8,14,0,12,0,13,0,0,0,0,0],"split_type":[0,0,0,0,0,0,0,0,0,0,0,0,0,0,0,0,0],"sum_hessian":[1.4005028E1,1.1925284E1,2.0797431E0,1.0861901E1,1.0633836E0,5.58047E0,5.281431E0,4.283917E0,1.2965534E0,4.1455755E0,1.1358557E0,2.499491E0,1.7844259E0,1.7096047E0,2.4359705E0,1.0035825E0,1.4959084E0],"tree_param":{"num_deleted":"0","num_feature":"16","num_nodes":"17","size_leaf_vector":"1"}},{"base_weights":[2.298523E-2,1.8387799E-1,-6.6763E-2,7.362228E-2,6.708831E-2,-3.7220174E-1,2.7285147E-1,2.1041201E-2,-7.217821E-2,4.5782682E-1,-2.038976E-1,8.802575E-2,8.153843E-2,1.0290858E-2,-4.067711E-2,4.4607338E-2,-4.7030605E-2],"categories":[],"categories_nodes":[],"categories_segments":[],"categories_sizes":[],"default_left":[0,0,0,0,0,0,0,0,0,0,0,0,0,0,0,0,0],"id":32,"left_children":[1,3,-1,-1,5,7,9,-1,-1,11,13,15,-1,-1,-1,-1,-1],"loss_changes":[1.7489542E0,7.668905E-1,0E0,0E0,1.1451596E0,9.8811764E-1,8.3762234E-1,0E0,0E0,7.729659E-1,2.3176752E-1,1.0617204E0,0E0,0E0,0E0,0E0,0E0],"parents":[2147483647,0,0,1,1,4,4,5,5,6,6,9,9,10,10,11,11],"right_children":[2,4,-1,-1,6,8,10,-1,-1,12,14,16,-1,-1,-1,-1,-1],"split_conditions":[-1.0469273E-1,1.156E2,-6.6763E-2,7.362228E-2,2.3468605E2,8.172615E0,1.3379264E1,2.1041201E-2,-7.217821E-2,4.715112E-2,-2.2282611E-1,-1.4436762E-1,8.153843E-2,1.0290858E-2,-4.067711E-2,4.4607338E-2,-4.7030605E-2],"split_indices":[14,2,0,0,10,11,11,0,0,13,14,15,0,0,0,0,0],"split_type":[0,0,0,0,0,0,0,0,0,0,0,0,0,0,0,0,0],"sum_hessian":[1.3635216E1,1.1653942E1,1.9812738E0,1.1083378E0,1.0545605E1,3.1058805E0,7.439724E0,1.3140215E0,1.791859E0,5.3886533E0,2.0510705E0,3.261578E0,2.1270752E0,1.0125433E0,1.0385273E0,2.109717E0,1.1518612E0],"tree_param":{"num_deleted":"0","num_feature":"16","num_nodes":"17","size_leaf_vector":"1"}},{"base_weights":[2.1120049E-2,1.7488573E-1,-6.5672904E-2,3.2565597E-1,-1.7391934E-1,4.8346096E-1,-3.1576067E-2,1.918964E-1,-6.1006047E-2,2.3749115E-1,8.755448E-2,4.2035382E-2,-1.1359998E-2,-1.6860132E-1,6.3000344E-2,-4.3162297E-2,9.618177E-3],"categories":[],"categories_nodes":[],"categories_segments":[],"categories_sizes":[],"default_left":[0,0,0,0,0,0,0,0,0,0,0,0,0,0,0,0,0],"id":33,"left_children":[1,3,-1,5,7,9,-1,11,-1,13,-1,-1,-1,15,-1,-1,-1],"loss_changes":[1.6029515E0,7.1016407E-1,0E0,1.0661235E0,8.1944007E-1,5.2866614E-1,0E0,2.6794025E-1,0E0,1.0730643E0,0E0,0E0,0E0,3.0408078E-1,0E0,0E0,0E0],"parents":[2147483647,0,0,1,1,3,3,4,4,5,5,7,7,9,9,13,13],"right_children":[2,4,-1,6,8,10,-1,12,-1,14,-1,-1,-1,16,-1,-1,-1],"split_conditions":[2.2451E2,-1.5476589E0,-6.5672904E-2,-2.2152299E-2,1.6838614E2,-1.0806035E-1,-3.1576067E-2,1.204968E6,-6.1006047E-2,1.0294919E1,8.755448E-2,4.2035382E-2,-1.1359998E-2,2.1048068E2,6.3000344E-2,-4.3162297E-2,9.618177E-3],"split_indices":[0,8,0,15,9,15,0,5,0,11,0,0,0,10,0,0,0],"split_type":[0,0,0,0,0,0,0,0,0,0,0,0,0,0,0,0,0],"sum_hessian":[1.327708E1,1.14269495E1,1.8501306E0,8.02467E0,3.4022791E0,6.637849E0,1.3868209E0,2.1548772E0,1.247402E0,5.0656686E0,1.5721805E0,1.0177842E0,1.137093E0,2.7701414E0,2.295527E0,1.0735916E0,1.6965498E0],"tree_param":{"num_deleted":"0","num_feature":"16","num_nodes":"17","size_leaf_vector":"1"}},{"base_weights":[1.8373441E-2,1.6747539E-1,-6.428208E-2,7.020937E-2,5.262353E-2,-3.629675E-1,2.4752465E-1,-6.978642E-2,1.9413669E-2,4.3418574E-1,-1.719483E-1,1.06805384E-1,7.426121E-2,2.2688383E-2,-4.6628628E-2,4.7233146E-2,-4.5435593E-2],"categories":[],"categories_nodes":[],"categories_segments":[],"categories_sizes":[],"default_left":[0,0,0,0,0,0,0,0,0,0,0,0,0,0,0,0,0],"id":34,"left_children":[1,3,-1,-1,5,7,9,-1,-1,11,13,15,-1,-1,-1,-1,-1],"loss_changes":[1.4852623E0,7.1189594E-1,0E0,0E0,9.905616E-1,8.734807E-1,7.1393394E-1,0E0,0E0,5.198481E-1,4.8503917E-1,1.0446193E0,0E0,0E0,0E0,0E0,0E0],"parents":[2147483647,0,0,1,1,4,4,5,5,6,6,9,9,10,10,11,11],"right_children":[2,4,-1,-1,6,8,10,-1,-1,12,14,16,-1,-1,-1,-1,-1],"split_conditions":[-1.0469273E-1,1.156E2,-6.428208E-2,7.020937E-2,2.3468605E2,-1.18039496E-1,1.3164511E1,-6.978642E-2,1.9413669E-2,4.715112E-2,-2.4280399E-1,-1.4436762E-1,7.426121E-2,2.2688383E-2,-4.6628628E-2,4.7233146E-2,-4.5435593E-2],"split_indices":[14,2,0,0,10,15,11,0,0,13,15,15,0,0,0,0,0],"split_type":[0,0,0,0,0,0,0,0,0,0,0,0,0,0,0,0,0],"sum_hessian":[1.2973737E1,1.1195757E1,1.7779801E0,1.0756639E0,1.0120093E1,2.955568E0,7.164525E0,1.688114E0,1.267454E0,4.9339113E0,2.2306137E0,3.0464919E0,1.8874197E0,1.0444889E0,1.1861248E0,1.9406794E0,1.1058123E0],"tree_param":{"num_deleted":"0","num_feature":"16","num_nodes":"17","size_leaf_vector":"1"}},{"base_weights":[1.7126068E-2,1.6018786E-1,-6.313056E-2,2.6150155E-1,-3.921054E-2,-6.592021E-3,4.8118794E-1,2.45223E-1,-5.817126E-2,6.0702723E-1,2.7096355E-3,-1.996379E-2,4.3140432E-1,7.343866E-3,8.1801526E-2,-6.460107E-4,6.227842E-2],"categories":[],"categories_nodes":[],"categories_segments":[],"categories_sizes":[],"default_left":[0,0,0,0,0,0,0,0,0,0,0,0,0,0,0,0,0],"id":35,"left_children":[1,3,-1,5,-1,7,9,11,-1,13,-1,-1,15,-1,-1,-1,-1],"loss_changes":[1.3658719E0,7.7215177E-1,0E0,6.34071E-1,0E0,9.84215E-1,3.2075214E-1,4.791185E-1,0E0,4.5485365E-1,0E0,0E0,3.108366E-1,0E0,0E0,0E0,0E0],"parents":[2147483647,0,0,1,1,3,3,5,5,6,6,7,7,9,9,12,12],"right_children":[2,4,-1,6,-1,8,10,12,-1,14,-1,-1,16,-1,-1,-1,-1],"split_conditions":[-3.1864157E-1,2.1632912E2,-6.313056E-2,4.9910467E-2,-3.921054E-2,-4.8904963E-2,1.3379264E1,-2.8715917E-1,-5.817126E-2,-2.3150183E-2,2.7096355E-3,-1.996379E-2,2.8310738E1,7.343866E-3,8.1801526E-2,-6.460107E-4,6.227842E-2],"split_indices":[8,9,0,13,0,15,11,15,0,12,0,0,7,0,0,0,0],"split_type":[0,0,0,0,0,0,0,0,0,0,0,0,0,0,0,0,0],"sum_hessian":[1.2633738E1,1.0967064E1,1.6666737E0,9.711994E0,1.2550696E0,4.810954E0,4.9010396E0,3.7448823E0,1.066072E0,3.5738485E0,1.3271912E0,1.0835576E0,2.6613247E0,1.3947066E0,2.179142E0,1.1032977E0,1.5580269E0],"tree_param":{"num_deleted":"0","num_feature":"16","num_nodes":"17","size_leaf_vector":"1"}},{"base_weights":[1.3517393E-2,1.5102081E-1,-6.1935343E-2,6.626751E-2,4.1229993E-2,-4.22524E-1,2.9949263E-1,7.7244877E-3,-7.067361E-2,4.4202402E-2,4.7580206E-1,3.5178453E-1,-4.317063E-2,7.237161E-2,-1.7198365E-2,5.10889E-3,4.7299307E-2],"categories":[],"categories_nodes":[],"categories_segments":[],"categories_sizes":[],"default_left":[0,0,0,0,0,0,0,0,0,0,0,0,0,0,0,0,0],"id":36,"left_children":[1,3,-1,-1,5,7,9,-1,-1,11,13,15,-1,-1,-1,-1,-1],"loss_changes":[1.2568662E0,6.347629E-1,0E0,0E0,1.4164953E0,6.607157E-1,3.1667686E-1,0E0,0E0,7.61894E-1,8.2073766E-1,8.817777E-2,0E0,0E0,0E0,0E0,0E0],"parents":[2147483647,0,0,1,1,4,4,5,5,6,6,9,9,10,10,11,11],"right_children":[2,4,-1,-1,6,8,10,-1,-1,12,14,16,-1,-1,-1,-1,-1],"split_conditions":[2.2451E2,1.156E2,-6.1935343E-2,6.626751E-2,2.3468605E2,8.172615E0,4.715112E-2,7.7244877E-3,-7.067361E-2,-1.4436762E-1,-1.5847913E0,-1.851587E-1,-4.317063E-2,7.237161E-2,-1.7198365E-2,5.10889E-3,4.7299307E-2],"split_indices":[0,2,0,0,10,11,13,0,0,15,8,14,0,0,0,0,0],"split_type":[0,0,0,0,0,0,0,0,0,0,0,0,0,0,0,0,0],"sum_hessian":[1.2368254E1,1.078613E1,1.5821234E0,1.0159124E0,9.770218E0,3.2672668E0,6.502951E0,1.4484583E0,1.8188083E0,3.1673875E0,3.3355637E0,2.082362E0,1.0850255E0,2.327566E0,1.0079978E0,1.0066206E0,1.0757413E0],"tree_param":{"num_deleted":"0","num_feature":"16","num_nodes":"17","size_leaf_vector":"1"}},{"base_weights":[1.262726E-2,1.4782001E-1,-6.07445E-2,-6.468498E-2,3.5611075E-1,4.832961E-2,-3.6567914E-1,4.7593158E-1,-9.12236E-3,-6.73174E-2,-6.4004295E-2,-5.47592E-3,6.780532E-2,-3.6837827E-2,2.6492149E-2],"categories":[],"categories_nodes":[],"categories_segments":[],"categories_sizes":[],"default_left":[0,0,0,0,0,0,0,0,0,0,0,0,0,0,0],"id":37,"left_children":[1,3,-1,5,7,-1,9,11,-1,13,-1,-1,-1,-1,-1],"loss_changes":[1.1833545E0,5.3269076E-1,0E0,1.2563857E0,3.6332947E-1,0E0,3.4937513E-1,5.59337E-1,0E0,4.39099E-1,0E0,0E0,0E0,0E0,0E0],"parents":[2147483647,0,0,1,1,3,3,4,4,6,6,7,7,9,9],"right_children":[2,4,-1,6,8,-1,10,12,-1,14,-1,-1,-1,-1,-1],"split_conditions":[-1.0469273E-1,1.9345314E-3,-6.07445E-2,2.5867338E1,1.312983E1,4.832961E-2,1.0883608E1,2.0837086E2,-9.12236E-3,1.8744E2,-6.4004295E-2,-5.47592E-3,6.780532E-2,-3.6837827E-2,2.6492149E-2],"split_indices":[14,12,0,7,11,0,11,10,0,3,0,0,0,0,0],"split_type":[0,0,0,0,0,0,0,0,0,0,0,0,0,0,0],"sum_hessian":[1.2045107E1,1.0514308E1,1.5307989E0,5.5457754E0,4.9685326E0,1.7514576E0,3.794318E0,3.8684263E0,1.1001062E0,2.4142537E0,1.3800644E0,1.2680666E0,2.6003594E0,1.2094898E0,1.2047638E0],"tree_param":{"num_deleted":"0","num_feature":"16","num_nodes":"15","size_leaf_vector":"1"}},{"base_weights":[8.728947E-3,1.3794187E-1,-5.956137E-2,2.282546E-1,-3.6109872E-2,-1.4116173E-2,4.2801613E-1,1.6970353E-1,-3.783876E-2,5.3515387E-1,-2.5225065E-3,-1.146424E-2,3.992078E-2,1.3291316E-2,6.926123E-2],"categories":[],"categories_nodes":[],"categories_segments":[],"categories_sizes":[],"default_left":[0,0,0,0,0,0,0,0,0,0,0,0,0,0,0],"id":38,"left_children":[1,3,-1,5,-1,7,9,11,-1,13,-1,-1,-1,-1,-1],"loss_changes":[1.0800953E0,5.9353E-1,0E0,5.0062853E-1,0E0,4.380848E-1,2.8697515E-1,3.3298588E-1,0E0,1.9929433E-1,0E0,0E0,0E0,0E0,0E0],"parents":[2147483647,0,0,1,1,3,3,5,5,6,6,7,7,9,9],"right_children":[2,4,-1,6,-1,8,10,12,-1,14,-1,-1,-1,-1,-1],"split_conditions":[-3.1864157E-1,2.1632912E2,-5.956137E-2,4.9910467E-2,-3.6109872E-2,-8.062098E-2,-1.5476589E0,9.1659155E0,-3.783876E-2,-2.3150183E-2,-2.5225065E-3,-1.146424E-2,3.992078E-2,1.3291316E-2,6.926123E-2],"split_indices":[8,9,0,13,0,15,8,11,0,12,0,0,0,0,0],"split_type":[0,0,0,0,0,0,0,0,0,0,0,0,0,0,0],"sum_hessian":[1.1779478E1,1.0340378E1,1.4391001E0,9.215278E0,1.1251006E0,4.583477E0,4.6318E0,3.401255E0,1.1822221E0,3.600082E0,1.0317184E0,1.7426565E0,1.6585984E0,1.5315994E0,2.0684826E0],"tree_param":{"num_deleted":"0","num_feature":"16","num_nodes":"15","size_leaf_vector":"1"}},{"base_weights":[5.8695707E-3,1.7360035E-1,-4.3493155E-1,2.635241E-1,-2.4287326E-2,-6.431148E-2,5.14494E-3,7.072225E-2,7.85391E-2,-3.3300623E-2,2.948471E-1,4.813307E-1,-2.3168525E-2,-7.28909E-3,6.8501525E-2],"categories":[],"categories_nodes":[],"categories_segments":[],"categories_sizes":[],"default_left":[0,0,0,0,0,0,0,0,0,0,0,0,0,0,0],"id":39,"left_children":[1,3,5,7,-1,-1,-1,-1,9,-1,11,13,-1,-1,-1],"loss_changes":[1.005437E0,4.3197635E-1,4.1300696E-1,6.4706725E-1,0E0,0E0,0E0,0E0,7.3614794E-1,0E0,6.248388E-1,5.224161E-1,0E0,0E0,0E0],"parents":[2147483647,0,0,1,1,2,2,3,3,8,8,10,10,11,11],"right_children":[2,4,6,8,-1,-1,-1,-1,10,-1,12,14,-1,-1,-1],"split_conditions":[-1.4490658E-1,2.156E2,1.318911E6,-4.0008764E0,-2.4287326E-2,-6.431148E-2,5.14494E-3,7.072225E-2,-2.318031E0,-3.3300623E-2,1.7129445E2,-5.5172415E-3,-2.3168525E-2,-7.28909E-3,6.8501525E-2],"split_indices":[14,0,5,8,0,0,0,0,8,0,9,12,0,0,0],"split_type":[0,0,0,0,0,0,0,0,0,0,0,0,0,0,0],"sum_hessian":[1.1577551E1,8.8255E0,2.7520514E0,7.560343E0,1.2651573E0,1.701515E0,1.0505364E0,1.3938848E0,6.1664577E0,1.9385991E0,4.227859E0,3.1854913E0,1.0423675E0,1.0286615E0,2.1568298E0],"tree_param":{"num_deleted":"0","num_feature":"16","num_nodes":"15","size_leaf_vector":"1"}},{"base_weights":[4.6990146E-3,1.263398E-1,-5.745868E-2,2.1104723E-1,-3.4394022E-2,-2.6112879E-2,4.05896E-1,1.4481272E-1,-3.602252E-2,5.118761E-1,-3.448775E-3,-2.0015828E-2,3.1365794E-1,6.2447723E-2,6.8817125E-3,-6.418624E-3,5.1533837E-2],"categories":[],"categories_nodes":[],"categories_segments":[],"categories_sizes":[],"default_left":[0,0,0,0,0,0,0,0,0,0,0,0,0,0,0,0,0],"id":40,"left_children":[1,3,-1,5,-1,7,9,11,-1,13,-1,-1,15,-1,-1,-1,-1],"loss_changes":[9.420137E-1,5.1145875E-1,0E0,4.7062835E-1,0E0,3.6224097E-1,2.755394E-1,3.135488E-1,0E0,1.8236518E-1,0E0,0E0,2.8303102E-1,0E0,0E0,0E0,0E0],"parents":[2147483647,0,0,1,1,3,3,5,5,6,6,7,7,9,9,12,12],"right_children":[2,4,-1,6,-1,8,10,12,-1,14,-1,-1,16,-1,-1,-1,-1],"split_conditions":[-3.1864157E-1,2.1632912E2,-5.745868E-2,4.9910467E-2,-3.4394022E-2,-8.062098E-2,-1.5476589E0,-2.8715917E-1,-3.602252E-2,1.664088E6,-3.448775E-3,-2.0015828E-2,9.1659155E0,6.2447723E-2,6.8817125E-3,-6.418624E-3,5.1533837E-2],"split_indices":[8,9,0,13,0,15,8,15,0,5,0,0,11,0,0,0,0],"split_type":[0,0,0,0,0,0,0,0,0,0,0,0,0,0,0,0,0],"sum_hessian":[1.1338369E1,1.0016888E1,1.3214824E0,8.9551115E0,1.0617754E0,4.4296045E0,4.5255075E0,3.3052666E0,1.1243377E0,3.516828E0,1.0086795E0,1.0252019E0,2.2800648E0,2.4776728E0,1.0391552E0,1.0307392E0,1.2493256E0],"tree_param":{"num_deleted":"0","num_feature":"16","num_nodes":"17","size_leaf_vector":"1"}},{"base_weights":[1.1783745E-3,1.1919637E-1,-5.6283988E-2,-4.6391793E-5,4.86809E-2,4.449113E-2,-1.6430892E-1,-5.6768622E-2,2.2300903E-2,2.413028E-1,-4.1351747E-2,-8.528188E-3,5.8400035E-2],"categories":[],"categories_nodes":[],"categories_segments":[],"categories_sizes":[],"default_left":[0,0,0,0,0,0,0,0,0,0,0,0,0],"id":41,"left_children":[1,3,-1,5,-1,-1,7,-1,9,11,-1,-1,-1],"loss_changes":[8.750292E-1,4.761904E-1,0E0,7.456804E-1,0E0,0E0,5.7354486E-1,0E0,6.7785966E-1,5.7163316E-1,0E0,0E0,0E0],"parents":[2147483647,0,0,1,1,3,3,6,6,8,8,9,9],"right_children":[2,4,-1,6,-1,-1,8,-1,10,12,-1,-1,-1],"split_conditions":[-1.0469273E-1,4.1517735E-2,-5.6283988E-2,2.5867338E1,4.86809E-2,4.449113E-2,-1.683994E-2,-5.6768622E-2,9.998456E-3,1.313573E6,-4.1351747E-2,-8.528188E-3,5.8400035E-2],"split_indices":[14,12,0,7,0,0,12,0,12,5,0,0,0],"split_type":[0,0,0,0,0,0,0,0,0,0,0,0,0],"sum_hessian":[1.1137749E1,9.862695E0,1.2750539E0,8.202061E0,1.6606342E0,1.7508323E0,6.451228E0,1.3945835E0,5.056645E0,3.6625228E0,1.3941221E0,2.2599633E0,1.4025595E0],"tree_param":{"num_deleted":"0","num_feature":"16","num_nodes":"13","size_leaf_vector":"1"}},{"base_weights":[-9.3413415E-5,1.1299567E-1,-5.5057254E-2,2.1854872E-1,-2.3688558E-2,6.1348207E-2,6.259888E-2,-2.9404166E-1,2.9252988E-1,-5.9940107E-2,2.1480506E-2,-1.8254956E-2,4.6773815E-1,5.5544924E-2,1.2184231E-2],"categories":[],"categories_nodes":[],"categories_segments":[],"categories_sizes":[],"default_left":[0,0,0,0,0,0,0,0,0,0,0,0,0,0,0],"id":42,"left_children":[1,3,-1,5,-1,-1,7,9,11,-1,-1,-1,13,-1,-1],"loss_changes":[8.040808E-1,4.4751352E-1,0E0,5.0065124E-1,0E0,0E0,6.9187385E-1,6.5624976E-1,5.010268E-1,0E0,0E0,0E0,5.151683E-2,0E0,0E0],"parents":[2147483647,0,0,1,1,3,3,6,6,7,7,8,8,12,12],"right_children":[2,4,-1,6,-1,-1,8,10,12,-1,-1,-1,14,-1,-1],"split_conditions":[-3.1864157E-1,2.156E2,-5.5057254E-2,-4.0008764E0,-2.3688558E-2,6.1348207E-2,-2.2987263E0,5.1842365E-2,1.0978608E8,-5.9940107E-2,2.1480506E-2,-1.8254956E-2,6.466877E-2,5.5544924E-2,1.2184231E-2],"split_indices":[8,0,0,8,0,0,8,13,4,0,0,0,13,0,0],"split_type":[0,0,0,0,0,0,0,0,0,0,0,0,0,0,0],"sum_hessian":[1.0916959E1,9.715717E0,1.2012411E0,7.7523365E0,1.9633809E0,1.3640703E0,6.388266E0,2.3948483E0,3.993418E0,1.3854678E0,1.0093806E0,1.0646648E0,2.928753E0,1.853038E0,1.0757151E0],"tree_param":{"num_deleted":"0","num_feature":"16","num_nodes":"15","size_leaf_vector":"1"}},{"base_weights":[-7.607135E-4,1.1030256E-1,-5.408149E-2,-8.456322E-2,3.022704E-1,3.9101724E-2,-3.5060135E-1,4.1856152E-1,-1.10641895E-2,-5.4471936E-2,-1.680765E-3,-6.939282E-3,6.121468E-2],"categories":[],"categories_nodes":[],"categories_segments":[],"categories_sizes":[],"default_left":[0,0,0,0,0,0,0,0,0,0,0,0,0],"id":43,"left_children":[1,3,-1,5,7,-1,9,11,-1,-1,-1,-1,-1],"loss_changes":[7.6209474E-1,4.19998E-1,0E0,8.9799774E-1,3.1185967E-1,0E0,2.7489877E-1,4.6982127E-1,0E0,0E0,0E0,0E0,0E0],"parents":[2147483647,0,0,1,1,3,3,4,4,6,6,7,7],"right_children":[2,4,-1,6,8,-1,10,12,-1,-1,-1,-1,-1],"split_conditions":[-1.0469273E-1,1.9345314E-3,-5.408149E-2,2.5867338E1,1.312983E1,3.9101724E-2,-1.7633438E-1,2.0837086E2,-1.10641895E-2,-5.4471936E-2,-1.680765E-3,-6.939282E-3,6.121468E-2],"split_indices":[14,12,0,7,11,0,14,10,0,0,0,0,0],"split_type":[0,0,0,0,0,0,0,0,0,0,0,0,0],"sum_hessian":[1.0711226E1,9.544198E0,1.167028E0,5.0140004E0,4.530198E0,1.6301318E0,3.3838685E0,3.5240235E0,1.0061744E0,1.7400414E0,1.6438271E0,1.183191E0,2.3408327E0],"tree_param":{"num_deleted":"0","num_feature":"16","num_nodes":"13","size_leaf_vector":"1"}},{"base_weights":[-3.2479982E-3,1.0352142E-1,-5.2979678E-2,-3.754044E-2,4.0526432E-1,1.594569E-1,-5.1423956E-2,5.527506E-2,4.7651315E-3,-1.1126985E-1,4.1838172E-1,3.0151779E-2,-4.698912E-2,5.2561957E-2,1.0006678E-2],"categories":[],"categories_nodes":[],"categories_segments":[],"categories_sizes":[],"default_left":[0,0,0,0,0,0,0,0,0,0,0,0,0,0,0],"id":44,"left_children":[1,3,-1,5,7,9,-1,-1,-1,11,13,-1,-1,-1,-1],"loss_changes":[7.0246136E-1,4.584781E-1,0E0,8.343623E-1,1.5310824E-1,4.974414E-1,0E0,0E0,0E0,7.241054E-1,6.680441E-2,0E0,0E0,0E0,0E0],"parents":[2147483647,0,0,1,1,3,3,4,4,5,5,9,9,10,10],"right_children":[2,4,-1,6,8,10,-1,-1,-1,12,14,-1,-1,-1,-1],"split_conditions":[2.2451E2,2.7712845E2,-5.2979678E-2,1.8335E2,1.312983E1,2.1172546E2,-5.1423956E-2,5.527506E-2,4.7651315E-3,1.9736421E2,1.0427522E1,3.0151779E-2,-4.698912E-2,5.2561957E-2,1.0006678E-2],"split_indices":[0,10,0,2,11,10,0,0,0,10,11,0,0,0,0],"split_type":[0,0,0,0,0,0,0,0,0,0,0,0,0,0,0],"sum_hessian":[1.0519458E1,9.413965E0,1.1054933E0,7.011667E0,2.402298E0,5.432265E0,1.5794019E0,1.3145047E0,1.0877934E0,2.934388E0,2.497877E0,1.4381965E0,1.4961914E0,1.3812786E0,1.1165984E0],"tree_param":{"num_deleted":"0","num_feature":"16","num_nodes":"15","size_leaf_vector":"1"}},{"base_weights":[-3.0540538E-3,1.0227201E-1,-5.2214053E-2,-1.1184155E-2,4.439219E-2,3.878305E-2,-1.6013142E-1,2.348001E-2,-5.7648122E-2,-1.9918936E-1,4.931676E-2,-6.374507E-2,1.1629257E-2],"categories":[],"categories_nodes":[],"categories_segments":[],"categories_sizes":[],"default_left":[0,0,0,0,0,0,0,0,0,0,0,0,0],"id":45,"left_children":[1,3,-1,5,-1,-1,7,9,-1,11,-1,-1,-1],"loss_changes":[6.721169E-1,4.0204298E-1,0E0,5.7711804E-1,0E0,0E0,5.5002797E-1,7.0806825E-1,0E0,7.19543E-1,0E0,0E0,0E0],"parents":[2147483647,0,0,1,1,3,3,6,6,7,7,9,9],"right_children":[2,4,-1,6,-1,-1,8,10,-1,12,-1,-1,-1],"split_conditions":[-3.1864157E-1,4.1517735E-2,-5.2214053E-2,2.5867338E1,4.439219E-2,3.878305E-2,2.156E2,2.6875256E2,-5.7648122E-2,-2.2987263E0,4.931676E-2,-6.374507E-2,1.1629257E-2],"split_indices":[8,12,0,7,0,0,0,10,0,8,0,0,0],"split_type":[0,0,0,0,0,0,0,0,0,0,0,0,0],"sum_hessian":[1.03166065E1,9.243929E0,1.0726773E0,7.6655827E0,1.5783464E0,1.6477137E0,6.017869E0,4.8309927E0,1.1868763E0,3.6679857E0,1.1630068E0,1.108089E0,2.559897E0],"tree_param":{"num_deleted":"0","num_feature":"16","num_nodes":"13","size_leaf_vector":"1"}},{"base_weights":[-5.7620266E-3,1.3333929E-1,-3.8653418E-1,-5.1273324E-2,3.4072086E-1,-5.86068E-2,2.8517907E-3,3.4716267E-2,-2.9371816E-1,5.4219026E-2,6.707898E-3,-5.075375E-2,6.0075857E-3],"categories":[],"categories_nodes":[],"categories_segments":[],"categories_sizes":[],"default_left":[0,0,0,0,0,0,0,0,0,0,0,0,0],"id":46,"left_children":[1,3,5,7,9,-1,-1,-1,11,-1,-1,-1,-1],"loss_changes":[6.396282E-1,3.5728276E-1,2.8399062E-1,6.3952863E-1,2.0129424E-1,0E0,0E0,0E0,3.3318764E-1,0E0,0E0,0E0,0E0],"parents":[2147483647,0,0,1,1,2,2,3,3,4,4,8,8],"right_children":[2,4,6,8,10,-1,-1,-1,12,-1,-1,-1,-1],"split_conditions":[3.624141E1,1.9345314E-3,1.19538E6,2.5867338E1,9.998456E-3,-5.86068E-2,2.8517907E-3,3.4716267E-2,-1.7633438E-1,5.4219026E-2,6.707898E-3,-5.075375E-2,6.0075857E-3],"split_indices":[7,12,5,7,12,0,0,0,14,0,0,0,0],"split_type":[0,0,0,0,0,0,0,0,0,0,0,0,0],"sum_hessian":[1.0103143E1,7.875817E0,2.2273257E0,4.5648828E0,3.3109338E0,1.2259315E0,1.0013942E0,1.5634956E0,3.0013871E0,1.3417106E0,1.9692234E0,1.5999084E0,1.4014788E0],"tree_param":{"num_deleted":"0","num_feature":"16","num_nodes":"13","size_leaf_vector":"1"}},{"base_weights":[-5.9050606E-3,1.2696125E-1,-3.7291464E-1,-4.8679266E-2,3.229881E-1,-5.7085242E-2,2.7074914E-3,3.276251E-2,-2.7927113E-1,5.1729888E-2,6.264472E-3,-4.8633303E-2,5.6520454E-3],"categories":[],"categories_nodes":[],"categories_segments":[],"categories_sizes":[],"default_left":[0,0,0,0,0,0,0,0,0,0,0,0,0],"id":47,"left_children":[1,3,5,7,9,-1,-1,-1,11,-1,-1,-1,-1],"loss_changes":[5.8143544E-1,3.182792E-1,2.660544E-1,5.690746E-1,1.842973E-1,0E0,0E0,0E0,3.0229983E-1,0E0,0E0,0E0,0E0],"parents":[2147483647,0,0,1,1,2,2,3,3,4,4,8,8],"right_children":[2,4,6,8,10,-1,-1,-1,12,-1,-1,-1,-1],"split_conditions":[3.624141E1,1.9345314E-3,1.19538E6,2.5867338E1,9.998456E-3,-5.7085242E-2,2.7074914E-3,3.276251E-2,-1.7633438E-1,5.1729888E-2,6.264472E-3,-4.8633303E-2,5.6520454E-3],"split_indices":[7,12,5,7,12,0,0,0,14,0,0,0,0],"split_type":[0,0,0,0,0,0,0,0,0,0,0,0,0],"sum_hessian":[9.952719E0,7.787516E0,2.1652026E0,4.5037847E0,3.2837315E0,1.1626757E0,1.0025269E0,1.5513407E0,2.9524438E0,1.3151584E0,1.968573E0,1.5489709E0,1.4034729E0],"tree_param":{"num_deleted":"0","num_feature":"16","num_nodes":"13","size_leaf_vector":"1"}},{"base_weights":[-6.1806743E-3,1.2167009E-1,-3.5812113E-1,-9.829249E-2,2.6665705E-1,-5.4429103E-2,1.7011988E-3,3.0912599E-2,-4.5332815E-2,4.6339986E-1,-1.13453325E-2,7.6690065E-3,6.2612705E-2],"categories":[],"categories_nodes":[],"categories_segments":[],"categories_sizes":[],"default_left":[0,0,0,0,0,0,0,0,0,0,0,0,0],"id":48,"left_children":[1,3,5,7,9,-1,-1,-1,-1,11,-1,-1,-1],"loss_changes":[5.3012E-1,3.0297208E-1,2.2820243E-1,7.445225E-1,4.6387437E-1,0E0,0E0,0E0,0E0,1.9241393E-1,0E0,0E0,0E0],"parents":[2147483647,0,0,1,1,2,2,3,3,4,4,9,9],"right_children":[2,4,6,8,10,-1,-1,-1,-1,12,-1,-1,-1],"split_conditions":[-1.4490658E-1,-4.0852507E-3,4.6850245E-2,2.5867338E1,1.9127E2,-5.4429103E-2,1.7011988E-3,3.0912599E-2,-4.5332815E-2,2.0837086E2,-1.13453325E-2,7.6690065E-3,6.2612705E-2],"split_indices":[14,12,13,7,1,0,0,0,0,10,0,0,0],"split_type":[0,0,0,0,0,0,0,0,0,0,0,0,0],"sum_hessian":[9.81316E0,7.6781697E0,2.1349905E0,3.1783273E0,4.4998426E0,1.1255021E0,1.0094882E0,1.5401964E0,1.6381309E0,2.8207307E0,1.679112E0,1.2711679E0,1.5495627E0],"tree_param":{"num_deleted":"0","num_feature":"16","num_nodes":"13","size_leaf_vector":"1"}},{"base_weights":[-6.532614E-3,1.1905615E-1,-3.567232E-1,1.9807422E-1,-2.2446018E-2,-5.4632563E-2,1.6499052E-3,-1.9275043E-2,5.165688E-2,-4.4787567E-2,2.88718E-1,5.2160878E-2,1.2594071E-3],"categories":[],"categories_nodes":[],"categories_segments":[],"categories_sizes":[],"default_left":[0,0,0,0,0,0,0,0,0,0,0,0,0],"id":49,"left_children":[1,3,5,7,-1,-1,-1,9,-1,-1,11,-1,-1],"loss_changes":[5.114834E-1,2.7787173E-1,2.2592014E-1,5.306742E-1,0E0,0E0,0E0,8.467674E-1,0E0,0E0,2.3590025E-1,0E0,0E0],"parents":[2147483647,0,0,1,1,2,2,3,3,7,7,10,10],"right_children":[2,4,6,8,-1,-1,-1,10,-1,-1,12,-1,-1],"split_conditions":[3.624141E1,2.156E2,1.178945E6,1.8069664E2,-2.2446018E-2,-5.4632563E-2,1.6499052E-3,-2.318031E0,5.165688E-2,-4.4787567E-2,1.4622E2,5.2160878E-2,1.2594071E-3],"split_indices":[7,0,5,9,0,0,0,8,0,0,2,0,0],"split_type":[0,0,0,0,0,0,0,0,0,0,0,0,0],"sum_hessian":[9.66424E0,7.599027E0,2.0652127E0,6.522148E0,1.0768789E0,1.061929E0,1.0032836E0,4.435039E0,2.0871093E0,1.6645248E0,2.770514E0,1.0206392E0,1.7498748E0],"tree_param":{"num_deleted":"0","num_feature":"16","num_nodes":"13","size_leaf_vector":"1"}},{"base_weights":[-7.472078E-3,1.1289006E-1,-3.444894E-1,1.9078359E-1,-2.2503752E-2,-5.3211596E-2,1.5667308E-3,-1.0396169E-1,4.2680705E-1,2.9574364E-2,-4.473204E-2,2.8223803E-4,5.5810224E-2],"categories":[],"categories_nodes":[],"categories_segments":[],"categories_sizes":[],"default_left":[0,0,0,0,0,0,0,0,0,0,0,0,0],"id":50,"left_children":[1,3,5,7,-1,-1,-1,9,11,-1,-1,-1,-1],"loss_changes":[4.655227E-1,2.66751E-1,2.1204576E-1,5.627359E-1,0E0,0E0,0E0,6.97401E-1,2.3967063E-1,0E0,0E0,0E0,0E0],"parents":[2147483647,0,0,1,1,2,2,3,3,7,7,8,8],"right_children":[2,4,6,8,-1,-1,-1,10,12,-1,-1,-1,-1],"split_conditions":[3.624141E1,-2.2152299E-2,1.178945E6,-4.0852507E-3,-2.2503752E-2,-5.3211596E-2,1.5667308E-3,2.5867338E1,2.8310738E1,2.9574364E-2,-4.473204E-2,2.8223803E-4,5.5810224E-2],"split_indices":[7,15,5,12,0,0,0,7,7,0,0,0,0],"split_type":[0,0,0,0,0,0,0,0,0,0,0,0,0],"sum_hessian":[9.517502E0,7.502939E0,2.0145626E0,6.451318E0,1.0516214E0,1.0106169E0,1.0039458E0,3.117599E0,3.3337188E0,1.5046749E0,1.612924E0,1.0297853E0,2.3039336E0],"tree_param":{"num_deleted":"0","num_feature":"16","num_nodes":"13","size_leaf_vector":"1"}},{"base_weights":[-1.0143498E-2,1.06208086E-1,-3.3130337E-2,3.8466882E-2,-2.7620716E-2,-3.6856037E-2,1.826494E-1,3.8844457E-1,-2.9354066E-2,7.236915E-3,5.219781E-2],"categories":[],"categories_nodes":[],"categories_segments":[],"categories_sizes":[],"default_left":[0,0,0,0,0,0,0,0,0,0,0],"id":51,"left_children":[1,3,-1,-1,5,-1,7,9,-1,-1,-1],"loss_changes":[4.2266E-1,3.2250112E-1,0E0,0E0,5.394191E-1,0E0,5.787181E-1,1.20137095E-1,0E0,0E0,0E0],"parents":[2147483647,0,0,1,1,4,4,6,6,7,7],"right_children":[2,4,-1,-1,6,-1,8,10,-1,-1,-1],"split_conditions":[-1.4490658E-1,-4.0008764E0,-3.3130337E-2,3.8466882E-2,-2.318031E0,-3.6856037E-2,1.7129445E2,-2.8715917E-1,-2.9354066E-2,7.236915E-3,5.219781E-2],"split_indices":[14,8,0,0,8,0,9,15,0,0,0],"split_type":[0,0,0,0,0,0,0,0,0,0,0],"sum_hessian":[9.36926E0,7.368909E0,2.000351E0,1.7835335E0,5.5853753E0,1.8434855E0,3.7418897E0,2.7414029E0,1.000487E0,1.2721542E0,1.4692485E0],"tree_param":{"num_deleted":"0","num_feature":"16","num_nodes":"11","size_leaf_vector":"1"}},{"base_weights":[-9.411178E-3,-1.16903126E-1,3.5087787E-2,6.6803984E-2,-5.0042428E-2,2.470505E-1,-1.9981492E-1,-2.1233112E-3,4.7336992E-2,1.9163698E-2,-4.6565562E-2],"categories":[],"categories_nodes":[],"categories_segments":[],"categories_sizes":[],"default_left":[0,0,0,0,0,0,0,0,0,0,0],"id":52,"left_children":[1,3,-1,5,-1,7,9,-1,-1,-1,-1],"loss_changes":[4.3790847E-1,6.423961E-1,0E0,3.7260675E-1,0E0,2.8087014E-1,4.2910105E-1,0E0,0E0,0E0,0E0],"parents":[2147483647,0,0,1,1,3,3,5,5,6,6],"right_children":[2,4,-1,6,-1,8,10,-1,-1,-1,-1],"split_conditions":[4.1517735E-2,3.2565907E1,3.5087787E-2,1.402653E6,-5.0042428E-2,1.255461E6,2.5867338E1,-2.1233112E-3,4.7336992E-2,1.9163698E-2,-4.6565562E-2],"split_indices":[12,7,0,5,0,5,7,0,0,0,0],"split_type":[0,0,0,0,0,0,0,0,0,0,0],"sum_hessian":[9.248091E0,7.64326E0,1.6048311E0,5.726211E0,1.9170485E0,3.4602914E0,2.26592E0,1.9980012E0,1.4622903E0,1.0293399E0,1.2365799E0],"tree_param":{"num_deleted":"0","num_feature":"16","num_nodes":"11","size_leaf_vector":"1"}},{"base_weights":[-8.480335E-3,-1.1074632E-1,3.304874E-2,6.3226126E-2,-4.7982763E-2,2.3358047E-1,-1.9032447E-1,-1.9823017E-3,4.487868E-2,1.8224126E-2,-4.4603866E-2],"categories":[],"categories_nodes":[],"categories_segments":[],"categories_sizes":[],"default_left":[0,0,0,0,0,0,0,0,0,0,0],"id":53,"left_children":[1,3,-1,5,-1,7,9,-1,-1,-1,-1],"loss_changes":[3.8727677E-1,5.7744133E-1,0E0,3.3274978E-1,0E0,2.5109226E-1,3.893231E-1,0E0,0E0,0E0,0E0],"parents":[2147483647,0,0,1,1,3,3,5,5,6,6],"right_children":[2,4,-1,6,-1,8,10,-1,-1,-1,-1],"split_conditions":[4.1517735E-2,3.2565907E1,3.304874E-2,1.402653E6,-4.7982763E-2,1.255461E6,2.5867338E1,-1.9823017E-3,4.487868E-2,1.8224126E-2,-4.4603866E-2],"split_indices":[12,7,0,5,0,5,7,0,0,0,0],"split_type":[0,0,0,0,0,0,0,0,0,0,0],"sum_hessian":[9.116193E0,7.5205417E0,1.5956508E0,5.6744776E0,1.8460637E0,3.4411898E0,2.233288E0,1.9972887E0,1.4439011E0,1.0259062E0,1.2073818E0],"tree_param":{"num_deleted":"0","num_feature":"16","num_nodes":"11","size_leaf_vector":"1"}},{"base_weights":[-7.7282507E-3,1.0279821E-1,-3.21358E-2,-5.8322944E-2,2.822711E-1,2.5249455E-2,-2.4987483E-1,4.7204465E-2,3.272555E-3,-4.5721136E-2,7.1489583E-3],"categories":[],"categories_nodes":[],"categories_segments":[],"categories_sizes":[],"default_left":[0,0,0,0,0,0,0,0,0,0,0],"id":54,"left_children":[1,3,-1,5,7,-1,9,-1,-1,-1,-1],"loss_changes":[3.795224E-1,2.5209227E-1,0E0,3.6807626E-1,1.7521033E-1,0E0,2.7734932E-1,0E0,0E0,0E0,0E0],"parents":[2147483647,0,0,1,1,3,3,4,4,6,6],"right_children":[2,4,-1,6,8,-1,10,-1,-1,-1,-1],"split_conditions":[3.624141E1,1.9345314E-3,-3.21358E-2,2.5867338E1,9.998456E-3,2.5249455E-2,-1.7633438E-1,4.7204465E-2,3.272555E-3,-4.5721136E-2,7.1489583E-3],"split_indices":[7,12,0,7,12,0,14,0,0,0,0],"split_type":[0,0,0,0,0,0,0,0,0,0,0],"sum_hessian":[8.995487E0,7.1485076E0,1.8469795E0,4.122542E0,3.0259655E0,1.450602E0,2.6719398E0,1.2123696E0,1.813596E0,1.3671614E0,1.3047786E0],"tree_param":{"num_deleted":"0","num_feature":"16","num_nodes":"11","size_leaf_vector":"1"}},{"base_weights":[-6.609569E-3,-1.0800546E-1,3.228418E-2,7.987012E-2,-4.1431668E-1,2.809881E-1,-1.8705371E-1,-6.2542455E-3,-5.6313314E-2,-2.5878113E-3,4.906518E-2,1.614707E-2,-4.2690888E-2],"categories":[],"categories_nodes":[],"categories_segments":[],"categories_sizes":[],"default_left":[0,0,0,0,0,0,0,0,0,0,0,0,0],"id":55,"left_children":[1,3,-1,5,7,9,11,-1,-1,-1,-1,-1,-1],"loss_changes":[3.6525488E-1,5.114362E-1,0E0,3.7414488E-1,1.3866621E-1,2.5821263E-1,3.343017E-1,0E0,0E0,0E0,0E0,0E0,0E0],"parents":[2147483647,0,0,1,1,3,3,4,4,5,5,6,6],"right_children":[2,4,-1,6,8,10,12,-1,-1,-1,-1,-1,-1],"split_conditions":[4.1517735E-2,3.1410477E1,3.228418E-2,1.402653E6,-2.3073831E-1,1.252316E6,2.5867338E1,-6.2542455E-3,-5.6313314E-2,-2.5878113E-3,4.906518E-2,1.614707E-2,-4.2690888E-2],"split_indices":[12,7,0,5,15,5,7,0,0,0,0,0,0],"split_type":[0,0,0,0,0,0,0,0,0,0,0,0,0],"sum_hessian":[8.890317E0,7.3120418E0,1.5782754E0,4.9904237E0,2.3216178E0,2.815985E0,2.1744385E0,1.1123935E0,1.2092245E0,1.4988395E0,1.3171456E0,1.019639E0,1.1547995E0],"tree_param":{"num_deleted":"0","num_feature":"16","num_nodes":"13","size_leaf_vector":"1"}},{"base_weights":[-7.2492957E-3,9.676416E-2,-3.039941E-2,-6.0438566E-2,2.7231747E-1,2.2992574E-2,-2.5140575E-1,4.5510624E-2,2.9686927E-3,-5.7451874E-2,1.0950956E-2],"categories":[],"categories_nodes":[],"categories_segments":[],"categories_sizes":[],"default_left":[0,0,0,0,0,0,0,0,0,0,0],"id":56,"left_children":[1,3,-1,5,7,-1,9,-1,-1,-1,-1],"loss_changes":[3.3089226E-1,2.369879E-1,0E0,3.3694994E-1,1.6197202E-1,0E0,4.727713E-1,0E0,0E0,0E0,0E0],"parents":[2147483647,0,0,1,1,3,3,4,4,6,6],"right_children":[2,4,-1,6,8,-1,10,-1,-1,-1,-1],"split_conditions":[3.624141E1,1.9345314E-3,-3.039941E-2,-3.6327524E0,9.998456E-3,2.2992574E-2,-2.1722507E0,4.5510624E-2,2.9686927E-3,-5.7451874E-2,1.0950956E-2],"split_indices":[7,12,0,8,12,0,8,0,0,0,0],"split_type":[0,0,0,0,0,0,0,0,0,0,0],"sum_hessian":[8.767444E0,6.9909325E0,1.7765111E0,4.034175E0,2.9567575E0,1.5196108E0,2.5145643E0,1.1868855E0,1.769872E0,1.014492E0,1.5000722E0],"tree_param":{"num_deleted":"0","num_feature":"16","num_nodes":"11","size_leaf_vector":"1"}},{"base_weights":[-7.279696E-3,-1.08287975E-1,3.1514417E-2,1.7325962E-1,-2.9212028E-1,-1.4638183E-2,4.4128474E-2,-4.5198523E-2,-5.8590826E-2,-3.5056304E-2,3.5937335E-2],"categories":[],"categories_nodes":[],"categories_segments":[],"categories_sizes":[],"default_left":[0,0,0,0,0,0,0,0,0,0,0],"id":57,"left_children":[1,3,-1,5,7,-1,-1,9,-1,-1,-1],"loss_changes":[3.4897384E-1,4.7014102E-1,0E0,3.9268184E-1,3.5625902E-1,0E0,0E0,6.140091E-1,0E0,0E0,0E0],"parents":[2147483647,0,0,1,1,3,3,4,4,7,7],"right_children":[2,4,-1,6,8,-1,-1,10,-1,-1,-1],"split_conditions":[4.1517735E-2,2.7835278E1,3.1514417E-2,1.8069664E2,-1.5732256E-1,-1.4638183E-2,4.4128474E-2,-1.8364294E-1,-5.8590826E-2,-3.5056304E-2,3.5937335E-2],"split_indices":[12,7,0,9,14,0,0,14,0,0,0],"split_type":[0,0,0,0,0,0,0,0,0,0,0],"sum_hessian":[8.667544E0,7.105646E0,1.5618982E0,2.8295593E0,4.276087E0,1.4975095E0,1.3320498E0,2.950288E0,1.325799E0,1.7573578E0,1.1929301E0],"tree_param":{"num_deleted":"0","num_feature":"16","num_nodes":"11","size_leaf_vector":"1"}},{"base_weights":[-6.502228E-3,-1.02925025E-1,2.9683456E-2,1.0204732E-1,-3.4563568E-1,4.004574E-2,-1.2794037E-1,-5.269657E-3,-5.524047E-2,-5.1609963E-2,3.7862312E-2],"categories":[],"categories_nodes":[],"categories_segments":[],"categories_sizes":[],"default_left":[0,0,0,0,0,0,0,0,0,0,0],"id":58,"left_children":[1,3,-1,5,7,-1,9,-1,-1,-1,-1],"loss_changes":[3.0909348E-1,4.3170884E-1,0E0,4.007229E-1,2.0568988E-1,0E0,9.098969E-1,0E0,0E0,0E0,0E0],"parents":[2147483647,0,0,1,1,3,3,4,4,6,6],"right_children":[2,4,-1,6,8,-1,10,-1,-1,-1,-1],"split_conditions":[4.1517735E-2,2.9356382E1,2.9683456E-2,-4.0008764E0,-1.6181642E-1,4.004574E-2,-2.2141361E0,-5.269657E-3,-5.524047E-2,-5.1609963E-2,3.7862312E-2],"split_indices":[12,7,0,8,14,0,8,0,0,0,0],"split_type":[0,0,0,0,0,0,0,0,0,0,0],"sum_hessian":[8.523256E0,6.968761E0,1.5544955E0,4.092306E0,2.8764548E0,1.4585799E0,2.6337261E0,1.7094526E0,1.1670022E0,1.4804735E0,1.1532527E0],"tree_param":{"num_deleted":"0","num_feature":"16","num_nodes":"11","size_leaf_vector":"1"}},{"base_weights":[-6.6382606E-3,-2.1281347E-1,1.2927684E-1,1.2425004E-2,-4.487754E-2,3.9582893E-2,-3.5993926E-2,-2.7566803E-1,2.695109E-2,-3.1461217E-3,-3.7384316E-2],"categories":[],"categories_nodes":[],"categories_segments":[],"categories_sizes":[],"default_left":[0,0,0,0,0,0,0,0,0,0,0],"id":59,"left_children":[1,3,5,-1,-1,-1,7,9,-1,-1,-1],"loss_changes":[2.902976E-1,3.8214833E-1,2.9063693E-1,0E0,0E0,0E0,4.24983E-1,6.443624E-2,0E0,0E0,0E0],"parents":[2147483647,0,0,1,1,2,2,6,6,7,7],"right_children":[2,4,6,-1,-1,-1,8,10,-1,-1,-1],"split_conditions":[1.0998233E8,-3.3878584E0,-3.26448E-1,1.2425004E-2,-4.487754E-2,3.9582893E-2,-1.0806035E-1,1.396846E6,2.695109E-2,-3.1461217E-3,-3.7384316E-2],"split_indices":[4,8,15,0,0,0,15,5,0,0,0],"split_type":[0,0,0,0,0,0,0,0,0,0,0],"sum_hessian":[8.377729E0,3.1037464E0,5.273983E0,1.4730198E0,1.6307265E0,1.4845833E0,3.7893996E0,2.1782146E0,1.6111851E0,1.0032153E0,1.1749991E0],"tree_param":{"num_deleted":"0","num_feature":"16","num_nodes":"11","size_leaf_vector":"1"}},{"base_weights":[-6.8378574E-3,9.0834826E-2,-2.8542468E-2,-9.8026566E-2,2.416146E-1,1.9895943E-2,-4.2365804E-2,4.2000067E-1,-8.613883E-3,4.8333923E-3,5.8353733E-2],"categories":[],"categories_nodes":[],"categories_segments":[],"categories_sizes":[],"default_left":[0,0,0,0,0,0,0,0,0,0,0],"id":60,"left_children":[1,3,-1,5,7,-1,-1,9,-1,-1,-1],"loss_changes":[2.789395E-1,2.413372E-1,0E0,4.812297E-1,3.0154264E-1,0E0,0E0,1.6078025E-1,0E0,0E0,0E0],"parents":[2147483647,0,0,1,1,3,3,4,4,7,7],"right_children":[2,4,-1,6,8,-1,-1,10,-1,-1,-1],"split_conditions":[3.624141E1,-4.0852507E-3,-2.8542468E-2,2.741396E1,1.8335E2,1.9895943E-2,-4.2365804E-2,2.0837086E2,-8.613883E-3,4.8333923E-3,5.8353733E-2],"split_indices":[7,12,0,7,2,0,0,10,0,0,0],"split_type":[0,0,0,0,0,0,0,0,0,0,0],"sum_hessian":[8.29842E0,6.6432405E0,1.6551793E0,3.10451E0,3.5387301E0,1.8271223E0,1.2773879E0,2.1092677E0,1.4294626E0,1.0403769E0,1.0688907E0],"tree_param":{"num_deleted":"0","num_feature":"16","num_nodes":"11","size_leaf_vector":"1"}},{"base_weights":[-5.8511007E-3,-9.884015E-2,2.8074209E-2,6.864019E-2,-3.7831086E-1,2.561416E-1,-1.7960297E-1,-5.703569E-3,-5.1480155E-2,-5.163195E-3,4.3105435E-2,-2.3539664E-2,-3.468642E-3],"categories":[],"categories_nodes":[],"categories_segments":[],"categories_sizes":[],"default_left":[0,0,0,0,0,0,0,0,0,0,0,0,0],"id":61,"left_children":[1,3,-1,5,7,9,11,-1,-1,-1,-1,-1,-1],"loss_changes":[2.7280924E-1,3.8554993E-1,0E0,3.089937E-1,1.0360813E-1,2.1772769E-1,1.6245455E-2,0E0,0E0,0E0,0E0,0E0,0E0],"parents":[2147483647,0,0,1,1,3,3,4,4,5,5,6,6],"right_children":[2,4,-1,6,8,10,12,-1,-1,-1,-1,-1,-1],"split_conditions":[4.1517735E-2,3.1410477E1,2.8074209E-2,1.402653E6,-2.3073831E-1,-2.3073831E-1,1.0249211E1,-5.703569E-3,-5.1480155E-2,-5.163195E-3,4.3105435E-2,-2.3539664E-2,-3.468642E-3],"split_indices":[12,7,0,5,15,15,11,0,0,0,0,0,0],"split_type":[0,0,0,0,0,0,0,0,0,0,0,0,0],"sum_hessian":[8.195513E0,6.6824284E0,1.5130844E0,4.6501145E0,2.0323138E0,2.6310382E0,2.0190763E0,1.0287317E0,1.0035821E0,1.2088243E0,1.4222139E0,1.0070114E0,1.0120649E0],"tree_param":{"num_deleted":"0","num_feature":"16","num_nodes":"13","size_leaf_vector":"1"}},{"base_weights":[-7.399358E-3,8.990105E-2,-2.6688648E-2,-5.966059E-2,4.5030054E-2,-3.6738105E-2,1.467512E-1,3.3123907E-2,-2.0906368E-2],"categories":[],"categories_nodes":[],"categories_segments":[],"categories_sizes":[],"default_left":[0,0,0,0,0,0,0,0,0],"id":62,"left_children":[1,3,-1,5,-1,-1,7,-1,-1],"loss_changes":[2.5413257E-1,4.2451626E-1,0E0,4.411582E-1,0E0,0E0,3.5569113E-1,0E0,0E0],"parents":[2147483647,0,0,1,1,3,3,6,6],"right_children":[2,4,-1,6,-1,-1,8,-1,-1],"split_conditions":[2.156E2,2.6875256E2,-2.6688648E-2,-2.2987263E0,4.5030054E-2,-3.6738105E-2,3.2565907E1,3.3123907E-2,-2.0906368E-2],"split_indices":[0,10,0,8,0,0,7,0,0],"split_type":[0,0,0,0,0,0,0,0,0],"sum_hessian":[8.115073E0,6.3773055E0,1.7377678E0,5.0966954E0,1.2806101E0,1.733112E0,3.3635836E0,2.2605636E0,1.1030198E0],"tree_param":{"num_deleted":"0","num_feature":"16","num_nodes":"9","size_leaf_vector":"1"}},{"base_weights":[-7.4259513E-3,-9.803246E-2,2.688995E-2,1.5729535E-1,-2.69323E-1,-1.2813866E-2,3.9231233E-2,-5.0113086E-2,-5.358342E-2,-3.2780197E-2,3.2286923E-2],"categories":[],"categories_nodes":[],"categories_segments":[],"categories_sizes":[],"default_left":[0,0,0,0,0,0,0,0,0,0,0],"id":63,"left_children":[1,3,-1,5,7,-1,-1,9,-1,-1,-1],"loss_changes":[2.5220296E-1,3.715061E-1,0E0,2.95318E-1,2.5782824E-1,0E0,0E0,4.9701807E-1,0E0,0E0,0E0],"parents":[2147483647,0,0,1,1,3,3,4,4,7,7],"right_children":[2,4,-1,6,8,-1,-1,10,-1,-1,-1],"split_conditions":[4.1517735E-2,2.7835278E1,2.688995E-2,1.8069664E2,-1.5732256E-1,-1.2813866E-2,3.9231233E-2,-1.8364294E-1,-5.358342E-2,-3.2780197E-2,3.2286923E-2],"split_indices":[12,7,0,9,14,0,0,14,0,0,0],"split_type":[0,0,0,0,0,0,0,0,0,0,0],"sum_hessian":[8.020374E0,6.5258055E0,1.4945692E0,2.6529655E0,3.8728397E0,1.4033412E0,1.2496245E0,2.77686E0,1.0959797E0,1.6612077E0,1.1156523E0],"tree_param":{"num_deleted":"0","num_feature":"16","num_nodes":"11","size_leaf_vector":"1"}},{"base_weights":[-7.007266E-3,-2.0322335E-1,1.20757334E-1,1.1080415E-2,-4.243975E-2,3.618195E-2,-3.2004386E-2,-2.5979647E-1,2.5966538E-2,-6.721513E-3,-3.234527E-2],"categories":[],"categories_nodes":[],"categories_segments":[],"categories_sizes":[],"default_left":[0,0,0,0,0,0,0,0,0,0,0],"id":64,"left_children":[1,3,5,-1,-1,-1,7,9,-1,-1,-1],"loss_changes":[2.4778539E-1,3.1682283E-1,2.3328632E-1,0E0,0E0,0E0,3.7334627E-1,1.6077057E-2,0E0,0E0,0E0],"parents":[2147483647,0,0,1,1,2,2,6,6,7,7],"right_children":[2,4,6,-1,-1,-1,8,10,-1,-1,-1],"split_conditions":[1.0998233E8,-3.3878584E0,-3.26448E-1,1.1080415E-2,-4.243975E-2,3.618195E-2,-1.0806035E-1,1.42488E6,2.5966538E-2,-6.721513E-3,-3.234527E-2],"split_indices":[4,8,15,0,0,0,15,5,0,0,0],"split_type":[0,0,0,0,0,0,0,0,0,0,0],"sum_hessian":[7.9050426E0,2.8845112E0,5.0205317E0,1.3982568E0,1.4862545E0,1.4165908E0,3.6039407E0,2.0849152E0,1.5190257E0,1.0286905E0,1.0562246E0],"tree_param":{"num_deleted":"0","num_feature":"16","num_nodes":"11","size_leaf_vector":"1"}},{"base_weights":[-7.3829526E-3,8.663733E-2,-2.561125E-2,-5.21844E-2,4.204946E-2,1.1234989E-1,-3.999485E-2,-1.3778332E-1,3.9440494E-2,2.3407582E-2,-4.2855527E-2],"categories":[],"categories_nodes":[],"categories_segments":[],"categories_sizes":[],"default_left":[0,0,0,0,0,0,0,0,0,0,0],"id":65,"left_children":[1,3,-1,5,-1,7,-1,9,-1,-1,-1],"loss_changes":[2.2887991E-1,3.5383794E-1,0E0,3.85249E-1,0E0,3.9426517E-1,0E0,4.5655197E-1,0E0,0E0,0E0],"parents":[2147483647,0,0,1,1,3,3,5,5,7,7],"right_children":[2,4,-1,6,-1,8,-1,10,-1,-1,-1],"split_conditions":[2.156E2,2.6875256E2,-2.561125E-2,1.8237E2,4.204946E-2,2.1172546E2,-3.999485E-2,1.9736421E2,3.9440494E-2,2.3407582E-2,-4.2855527E-2],"split_indices":[0,10,0,2,0,10,0,10,0,0,0],"split_type":[0,0,0,0,0,0,0,0,0,0,0],"sum_hessian":[7.83838E0,6.1611376E0,1.6772425E0,4.9475718E0,1.2135657E0,3.8180914E0,1.1294805E0,2.2946463E0,1.5234454E0,1.0924855E0,1.2021606E0],"tree_param":{"num_deleted":"0","num_feature":"16","num_nodes":"11","size_leaf_vector":"1"}},{"base_weights":[-7.2072954E-3,-1.9787063E-1,1.17206044E-1,1.030292E-2,-4.100426E-2,-1.21360775E-2,2.5693795E-1,4.142612E-2,-7.151954E-3],"categories":[],"categories_nodes":[],"categories_segments":[],"categories_sizes":[],"default_left":[0,0,0,0,0,0,0,0,0],"id":66,"left_children":[1,3,5,-1,-1,-1,7,-1,-1],"loss_changes":[2.2994736E-1,2.857226E-1,2.2794183E-1,0E0,0E0,0E0,2.3854858E-1,0E0,0E0],"parents":[2147483647,0,0,1,1,2,2,6,6],"right_children":[2,4,6,-1,-1,-1,8,-1,-1],"split_conditions":[1.0998233E8,-3.3878584E0,-3.1884366E-3,1.030292E-2,-4.100426E-2,-1.21360775E-2,1.9127E2,4.142612E-2,-7.151954E-3],"split_indices":[4,8,12,0,0,0,1,0,0],"split_type":[0,0,0,0,0,0,0,0,0],"sum_hessian":[7.716124E0,2.8137007E0,4.9024234E0,1.3762815E0,1.4374193E0,1.8593669E0,3.0430562E0,1.8809125E0,1.1621437E0],"tree_param":{"num_deleted":"0","num_feature":"16","num_nodes":"9","size_leaf_vector":"1"}},{"base_weights":[-7.569861E-3,8.008398E-2,-2.5398118E-2,-9.5697746E-2,2.2290078E-1,1.8616783E-2,-4.0694963E-2,3.8612813E-2,-8.447893E-3],"categories":[],"categories_nodes":[],"categories_segments":[],"categories_sizes":[],"default_left":[0,0,0,0,0,0,0,0,0],"id":67,"left_children":[1,3,-1,5,7,-1,-1,-1,-1],"loss_changes":[2.0725302E-1,2.0066482E-1,0E0,4.180705E-1,2.4543588E-1,0E0,0E0,0E0,0E0],"parents":[2147483647,0,0,1,1,3,3,4,4],"right_children":[2,4,-1,6,8,-1,-1,-1,-1],"split_conditions":[3.624141E1,-4.0852507E-3,-2.5398118E-2,2.741396E1,1.8335E2,1.8616783E-2,-4.0694963E-2,3.8612813E-2,-8.447893E-3],"split_indices":[7,12,0,7,2,0,0,0,0],"split_type":[0,0,0,0,0,0,0,0,0],"sum_hessian":[7.6538305E0,6.1434655E0,1.5103649E0,2.9017997E0,3.2416656E0,1.7336781E0,1.1681216E0,1.9499788E0,1.2916868E0],"tree_param":{"num_deleted":"0","num_feature":"16","num_nodes":"9","size_leaf_vector":"1"}},{"base_weights":[-8.953945E-3,-9.498913E-2,2.4840986E-2,2.4026824E-2,-2.1149538E-1,-3.8865782E-2,-5.2306768E-2,-2.3447947E-1,2.981332E-2,2.6851424E-3,-3.6167324E-2],"categories":[],"categories_nodes":[],"categories_segments":[],"categories_sizes":[],"default_left":[0,0,0,0,0,0,0,0,0,0,0],"id":68,"left_children":[1,3,-1,-1,5,7,-1,9,-1,-1,-1],"loss_changes":[2.1350318E-1,3.3013988E-1,0E0,0E0,2.937216E-1,3.8879642E-1,0E0,1.300565E-1,0E0,0E0,0E0],"parents":[2147483647,0,0,1,1,4,4,5,5,7,7],"right_children":[2,4,-1,-1,6,8,-1,10,-1,-1,-1],"split_conditions":[4.1517735E-2,2.5867338E1,2.4840986E-2,2.4026824E-2,2.156E2,1.8215666E2,-5.2306768E-2,3.8926307E-2,2.981332E-2,2.6851424E-3,-3.6167324E-2],"split_indices":[12,7,0,0,0,9,0,13,0,0,0],"split_type":[0,0,0,0,0,0,0,0,0,0,0],"sum_hessian":[7.5766416E0,6.151235E0,1.4254063E0,1.3124018E0,4.8388333E0,3.8374166E0,1.0014167E0,2.6205254E0,1.2168914E0,1.1161629E0,1.5043625E0],"tree_param":{"num_deleted":"0","num_feature":"16","num_nodes":"11","size_leaf_vector":"1"}},{"base_weights":[-9.156582E-3,-9.1318496E-2,2.3425892E-2,8.846174E-2,-3.091353E-1,3.4694668E-2,-1.1704662E-1,-4.7259876E-3,-4.5280013E-2,-4.7424894E-2,3.4197118E-2],"categories":[],"categories_nodes":[],"categories_segments":[],"categories_sizes":[],"default_left":[0,0,0,0,0,0,0,0,0,0,0],"id":69,"left_children":[1,3,-1,5,7,-1,9,-1,-1,-1,-1],"loss_changes":[1.9102982E-1,3.038532E-1,0E0,2.873982E-1,1.07091606E-1,0E0,7.091352E-1,0E0,0E0,0E0,0E0],"parents":[2147483647,0,0,1,1,3,3,4,4,6,6],"right_children":[2,4,-1,6,8,-1,10,-1,-1,-1,-1],"split_conditions":[4.1517735E-2,2.9356382E1,2.3425892E-2,-4.0008764E0,-1.7511377E-1,3.4694668E-2,-2.2141361E0,-4.7259876E-3,-4.5280013E-2,-4.7424894E-2,3.4197118E-2],"split_indices":[12,7,0,8,14,0,8,0,0,0,0],"split_type":[0,0,0,0,0,0,0,0,0,0,0],"sum_hessian":[7.4821005E0,6.0610967E0,1.4210037E0,3.6458113E0,2.4152853E0,1.3099467E0,2.3358645E0,1.326419E0,1.0888665E0,1.2949599E0,1.0409048E0],"tree_param":{"num_deleted":"0","num_feature":"16","num_nodes":"11","size_leaf_vector":"1"}},{"base_weights":[-9.104615E-3,9.401304E-2,-2.0538543E-1,-1.6585438E-1,2.60214E-1,8.286296E-3,-3.8251407E-2,6.2872157E-3,-3.1201333E-2,-3.4137056E-3,3.9993137E-2],"categories":[],"categories_nodes":[],"categories_segments":[],"categories_sizes":[],"default_left":[0,0,0,0,0,0,0,0,0,0,0],"id":70,"left_children":[1,3,5,7,9,-1,-1,-1,-1,-1,-1],"loss_changes":[1.8879668E-1,3.0989107E-1,1.9498233E-1,1.2056968E-1,1.8457186E-1,0E0,0E0,0E0,0E0,0E0,0E0],"parents":[2147483647,0,0,1,1,2,2,3,3,4,4],"right_children":[2,4,6,8,10,-1,-1,-1,-1,-1,-1],"split_conditions":[-1.5476589E0,4.295116E-2,3.364259E1,-1.4436762E-1,-2.2487702E-2,8.286296E-3,-3.8251407E-2,6.2872157E-3,-3.1201333E-2,-3.4137056E-3,3.9993137E-2],"split_indices":[8,13,7,15,12,0,0,0,0,0,0],"split_type":[0,0,0,0,0,0,0,0,0,0,0],"sum_hessian":[7.373895E0,5.175784E0,2.1981108E0,2.019786E0,3.1559985E0,1.0391876E0,1.1589233E0,1.0096326E0,1.0101534E0,1.2590828E0,1.8969156E0],"tree_param":{"num_deleted":"0","num_feature":"16","num_nodes":"11","size_leaf_vector":"1"}},{"base_weights":[-1.0508287E-2,7.686636E-2,-2.4353765E-2,-6.920223E-2,4.3046158E-2,9.515339E-2,-3.9273266E-2,-1.4863211E-1,3.7584204E-2,2.1253379E-2,-4.216866E-2],"categories":[],"categories_nodes":[],"categories_segments":[],"categories_sizes":[],"default_left":[0,0,0,0,0,0,0,0,0,0,0],"id":71,"left_children":[1,3,-1,5,-1,7,-1,9,-1,-1,-1],"loss_changes":[1.8793489E-1,3.812371E-1,0E0,3.3923033E-1,0E0,3.685385E-1,0E0,4.014607E-1,0E0,0E0,0E0],"parents":[2147483647,0,0,1,1,3,3,5,5,7,7],"right_children":[2,4,-1,6,-1,8,-1,10,-1,-1,-1],"split_conditions":[1.3164511E1,2.7829013E2,-2.4353765E-2,1.8335E2,4.3046158E-2,2.1172546E2,-3.9273266E-2,1.9736421E2,3.7584204E-2,2.1253379E-2,-4.216866E-2],"split_indices":[11,10,0,2,0,10,0,10,0,0,0],"split_type":[0,0,0,0,0,0,0,0,0,0,0],"sum_hessian":[7.3108015E0,5.804529E0,1.5062723E0,4.6768384E0,1.127691E0,3.569433E0,1.1074053E0,2.1620815E0,1.4073514E0,1.0262784E0,1.1358031E0],"tree_param":{"num_deleted":"0","num_feature":"16","num_nodes":"11","size_leaf_vector":"1"}},{"base_weights":[-1.0125007E-2,-1.8529789E-1,1.0415272E-1,9.123984E-3,-3.794647E-2,3.2720074E-2,-3.3277288E-2,2.4689814E-2,-1.9996169E-1,-3.470956E-2,3.922189E-3],"categories":[],"categories_nodes":[],"categories_segments":[],"categories_sizes":[],"default_left":[0,0,0,0,0,0,0,0,0,0,0],"id":72,"left_children":[1,3,5,-1,-1,-1,7,-1,9,-1,-1],"loss_changes":[1.835302E-1,2.2786044E-1,1.8270624E-1,0E0,0E0,0E0,2.5372934E-1,0E0,1.2961233E-1,0E0,0E0],"parents":[2147483647,0,0,1,1,2,2,6,6,8,8],"right_children":[2,4,6,-1,-1,-1,8,-1,10,-1,-1],"split_conditions":[1.0998233E8,-3.3878584E0,8.868559E0,9.123984E-3,-3.794647E-2,3.2720074E-2,-3.26448E-1,2.4689814E-2,-2.0211141E-1,-3.470956E-2,3.922189E-3],"split_indices":[4,8,11,0,0,0,15,0,14,0,0],"split_type":[0,0,0,0,0,0,0,0,0,0,0],"sum_hessian":[7.204015E0,2.5988483E0,4.6051664E0,1.2906971E0,1.3081512E0,1.2292491E0,3.375917E0,1.0797546E0,2.2961624E0,1.1423048E0,1.1538576E0],"tree_param":{"num_deleted":"0","num_feature":"16","num_nodes":"11","size_leaf_vector":"1"}},{"base_weights":[-9.53705E-3,7.5707324E-2,-2.301803E-2,-5.6813058E-2,3.8412906E-2,-3.279468E-2,1.2715827E-1,3.1014785E-2,-1.4095724E-2],"categories":[],"categories_nodes":[],"categories_segments":[],"categories_sizes":[],"default_left":[0,0,0,0,0,0,0,0,0],"id":73,"left_children":[1,3,-1,5,-1,-1,7,-1,-1],"loss_changes":[1.7054397E-1,2.9258755E-1,0E0,3.1628722E-1,0E0,0E0,2.3997504E-1,0E0,0E0],"parents":[2147483647,0,0,1,1,3,3,6,6],"right_children":[2,4,-1,6,-1,-1,8,-1,-1],"split_conditions":[2.156E2,2.6875256E2,-2.301803E-2,-2.2987263E0,3.8412906E-2,-3.279468E-2,3.1410477E1,3.1014785E-2,-1.4095724E-2],"split_indices":[0,10,0,8,0,0,7,0,0],"split_type":[0,0,0,0,0,0,0,0,0],"sum_hessian":[7.1408324E0,5.6246552E0,1.5161774E0,4.504842E0,1.1198131E0,1.5046775E0,3.0001645E0,1.6899793E0,1.3101851E0],"tree_param":{"num_deleted":"0","num_feature":"16","num_nodes":"9","size_leaf_vector":"1"}},{"base_weights":[-8.721806E-3,2.3381323E-2,-8.573855E-2,-3.9115667E-2,9.629833E-2,2.901292E-1,-1.5127653E-2,-4.863491E-3,4.7228877E-2],"categories":[],"categories_nodes":[],"categories_segments":[],"categories_sizes":[],"default_left":[0,0,0,0,0,0,0,0,0],"id":74,"left_children":[1,-1,3,-1,5,7,-1,-1,-1],"loss_changes":[1.7076445E-1,0E0,4.1882813E-1,0E0,2.8852826E-1,2.2056499E-1,0E0,0E0,0E0],"parents":[2147483647,0,0,2,2,4,4,5,5],"right_children":[2,-1,4,-1,6,8,-1,-1,-1],"split_conditions":[2.5867338E1,2.3381323E-2,-3.1884366E-3,-3.9115667E-2,1.9127E2,2.0837086E2,-1.5127653E-2,-4.863491E-3,4.7228877E-2],"split_indices":[7,0,12,0,1,10,0,0,0],"split_type":[0,0,0,0,0,0,0,0,0],"sum_hessian":[7.068718E0,1.21299E0,5.8557277E0,1.7577797E0,4.097948E0,2.2020433E0,1.8959047E0,1.026346E0,1.1756973E0],"tree_param":{"num_deleted":"0","num_feature":"16","num_nodes":"9","size_leaf_vector":"1"}},{"base_weights":[-6.514315E-3,-8.6388044E-2,2.2164091E-2,2.217572E-2,-1.9561666E-1,-3.719714E-2,-1.3945271E-2,1.9510483E-2,-2.473503E-2],"categories":[],"categories_nodes":[],"categories_segments":[],"categories_sizes":[],"default_left":[0,0,0,0,0,0,0,0,0],"id":75,"left_children":[1,3,-1,-1,5,-1,7,-1,-1],"loss_changes":[1.6475299E-1,2.6679164E-1,0E0,0E0,1.688423E-1,0E0,2.2950472E-1,0E0,0E0],"parents":[2147483647,0,0,1,1,4,4,6,6],"right_children":[2,4,-1,-1,6,-1,8,-1,-1],"split_conditions":[4.1517735E-2,2.5867338E1,2.2164091E-2,2.217572E-2,-3.1884366E-3,-3.719714E-2,9.092746E-3,1.9510483E-2,-2.473503E-2],"split_indices":[12,7,0,0,12,0,12,0,0],"split_type":[0,0,0,0,0,0,0,0,0],"sum_hessian":[6.989958E0,5.63766E0,1.3522977E0,1.2057902E0,4.43187E0,1.7173162E0,2.7145538E0,1.518551E0,1.196003E0],"tree_param":{"num_deleted":"0","num_feature":"16","num_nodes":"9","size_leaf_vector":"1"}},{"base_weights":[-5.753637E-3,1.6330913E-1,-1.1603408E-1,2.8542697E-2,-6.1469767E-3,8.515988E-2,-4.7651038E-2,-2.3107708E-2,2.7118355E-1,-4.5129177E-3,4.4227134E-2],"categories":[],"categories_nodes":[],"categories_segments":[],"categories_sizes":[],"default_left":[0,0,0,0,0,0,0,0,0,0,0],"id":76,"left_children":[1,3,5,-1,-1,7,-1,-1,9,-1,-1],"loss_changes":[1.6677971E-1,1.1487067E-1,4.3101084E-1,0E0,0E0,3.158218E-1,0E0,0E0,1.9148935E-1,0E0,0E0],"parents":[2147483647,0,0,1,1,2,2,5,5,8,8],"right_children":[2,4,6,-1,-1,8,-1,-1,10,-1,-1],"split_conditions":[-3.3878584E0,2.156E2,1.8823517E2,2.8542697E-2,-6.1469767E-3,-3.1884366E-3,-4.7651038E-2,-2.3107708E-2,2.0837086E2,-4.5129177E-3,4.4227134E-2],"split_indices":[8,0,6,0,0,12,0,0,10,0,0],"split_type":[0,0,0,0,0,0,0,0,0,0,0],"sum_hessian":[6.9289737E0,2.54562E0,4.3833537E0,1.4746566E0,1.0709633E0,3.3033822E0,1.0799716E0,1.1337818E0,2.1696005E0,1.0200044E0,1.1495961E0],"tree_param":{"num_deleted":"0","num_feature":"16","num_nodes":"11","size_leaf_vector":"1"}},{"base_weights":[-6.3876165E-3,-1.7359439E-1,1.0147479E-1,9.2920745E-3,-3.65496E-2,-1.4185496E-2,2.058982E-1,-2.4670022E-2,4.634766E-2,1.6901754E-2,-2.004931E-2],"categories":[],"categories_nodes":[],"categories_segments":[],"categories_sizes":[],"default_left":[0,0,0,0,0,0,0,0,0,0,0],"id":77,"left_children":[1,3,5,-1,-1,-1,7,9,-1,-1,-1],"loss_changes":[1.590586E-1,2.1011451E-1,1.6637644E-1,0E0,0E0,0E0,2.5999406E-1,1.414277E-1,0E0,0E0,0E0],"parents":[2147483647,0,0,1,1,2,2,6,6,7,7],"right_children":[2,4,6,-1,-1,-1,8,10,-1,-1,-1],"split_conditions":[1.0998233E8,-3.3878584E0,4.2685315E-2,9.2920745E-3,-3.65496E-2,-1.4185496E-2,-1.0806035E-1,-2.8027794E-1,4.634766E-2,1.6901754E-2,-2.004931E-2],"split_indices":[4,8,13,0,0,0,15,14,0,0,0],"split_type":[0,0,0,0,0,0,0,0,0,0,0],"sum_hessian":[6.842561E0,2.4441965E0,4.3983645E0,1.2391043E0,1.2050922E0,1.2131035E0,3.1852608E0,2.157882E0,1.0273789E0,1.0451957E0,1.1126862E0],"tree_param":{"num_deleted":"0","num_feature":"16","num_nodes":"11","size_leaf_vector":"1"}},{"base_weights":[-5.5901622E-3,7.4214295E-2,-2.2531722E-2,-8.466129E-2,2.0137651E-1,2.1802412E-2,-3.227998E-2,3.4587856E-2,-7.623454E-3],"categories":[],"categories_nodes":[],"categories_segments":[],"categories_sizes":[],"default_left":[0,0,0,0,0,0,0,0,0],"id":78,"left_children":[1,3,-1,5,7,-1,-1,-1,-1],"loss_changes":[1.5328433E-1,1.4766511E-1,0E0,3.2829994E-1,1.8229571E-1,0E0,0E0,0E0,0E0],"parents":[2147483647,0,0,1,1,3,3,4,4],"right_children":[2,4,-1,6,8,-1,-1,-1,-1],"split_conditions":[3.624141E1,-4.0852507E-3,-2.2531722E-2,-3.6327524E0,1.8335E2,2.1802412E-2,-3.227998E-2,3.4587856E-2,-7.623454E-3],"split_indices":[7,12,0,8,2,0,0,0,0],"split_type":[0,0,0,0,0,0,0,0,0],"sum_hessian":[6.7879114E0,5.4652033E0,1.3227085E0,2.5782197E0,2.8869834E0,1.1724476E0,1.4057721E0,1.7369539E0,1.1500297E0],"tree_param":{"num_deleted":"0","num_feature":"16","num_nodes":"9","size_leaf_vector":"1"}},{"base_weights":[-5.87971E-3,-1.6814625E-1,9.860659E-2,7.058555E-3,-3.652564E-2,-1.37989065E-2,2.0095661E-1,-1.9311473E-2,4.4427756E-2,1.6333325E-2,-1.8732874E-2],"categories":[],"categories_nodes":[],"categories_segments":[],"categories_sizes":[],"default_left":[0,0,0,0,0,0,0,0,0,0,0],"id":79,"left_children":[1,3,5,-1,-1,-1,7,9,-1,-1,-1],"loss_changes":[1.476125E-1,1.856254E-1,1.5683642E-1,0E0,0E0,0E0,2.298618E-1,1.2650628E-1,0E0,0E0,0E0],"parents":[2147483647,0,0,1,1,2,2,6,6,7,7],"right_children":[2,4,6,-1,-1,-1,8,10,-1,-1,-1],"split_conditions":[1.0998233E8,2.9980085E1,4.2685315E-2,7.058555E-3,-3.652564E-2,-1.37989065E-2,-1.0806035E-1,-2.8027794E-1,4.4427756E-2,1.6333325E-2,-1.8732874E-2],"split_indices":[4,7,13,0,0,0,15,14,0,0,0],"split_type":[0,0,0,0,0,0,0,0,0,0,0],"sum_hessian":[6.7284E0,2.3968468E0,4.3315535E0,1.3742768E0,1.02257E0,1.2028347E0,3.1287189E0,2.1253572E0,1.0033616E0,1.031708E0,1.0936493E0],"tree_param":{"num_deleted":"0","num_feature":"16","num_nodes":"11","size_leaf_vector":"1"}},{"base_weights":[-5.515892E-3,7.049217E-2,-2.1585764E-2,-8.153203E-2,1.9164142E-1,2.035008E-2,-3.065201E-2,3.2447886E-2,-6.4662443E-3],"categories":[],"categories_nodes":[],"categories_segments":[],"categories_sizes":[],"default_left":[0,0,0,0,0,0,0,0,0],"id":80,"left_children":[1,3,-1,5,7,-1,-1,-1,-1],"loss_changes":[1.3795587E-1,1.3337174E-1,0E0,2.8919044E-1,1.5227713E-1,0E0,0E0,0E0,0E0],"parents":[2147483647,0,0,1,1,3,3,4,4],"right_children":[2,4,-1,6,8,-1,-1,-1,-1],"split_conditions":[3.624141E1,-4.0852507E-3,-2.1585764E-2,-3.6327524E0,1.8335E2,2.035008E-2,-3.065201E-2,3.2447886E-2,-6.4662443E-3],"split_indices":[7,12,0,8,2,0,0,0,0],"split_type":[0,0,0,0,0,0,0,0,0],"sum_hessian":[6.677141E0,5.3931627E0,1.2839786E0,2.5368307E0,2.856332E0,1.161215E0,1.3756157E0,1.7060999E0,1.1502321E0],"tree_param":{"num_deleted":"0","num_feature":"16","num_nodes":"9","size_leaf_vector":"1"}},{"base_weights":[-5.7996735E-3,2.1820972E-2,-8.031657E-2,-3.480632E-2,7.695554E-2,2.3185113E-1,-1.1935103E-2,2.946291E-3,3.246987E-2],"categories":[],"categories_nodes":[],"categories_segments":[],"categories_sizes":[],"default_left":[0,0,0,0,0,0,0,0,0],"id":81,"left_children":[1,-1,3,-1,5,7,-1,-1,-1],"loss_changes":[1.4477852E-1,0E0,2.9844773E-1,0E0,1.7615178E-1,4.8108786E-2,0E0,0E0,0E0],"parents":[2147483647,0,0,2,2,4,4,5,5],"right_children":[2,-1,4,-1,6,8,-1,-1,-1],"split_conditions":[2.5867338E1,2.1820972E-2,-3.1884366E-3,-3.480632E-2,1.9127E2,1.612E2,-1.1935103E-2,2.946291E-3,3.246987E-2],"split_indices":[7,0,12,0,1,3,0,0,0],"split_type":[0,0,0,0,0,0,0,0,0],"sum_hessian":[6.623351E0,1.1719531E0,5.4513984E0,1.5683119E0,3.8830864E0,2.0692663E0,1.8138201E0,1.065036E0,1.0042301E0],"tree_param":{"num_deleted":"0","num_feature":"16","num_nodes":"9","size_leaf_vector":"1"}},{"base_weights":[-3.9133774E-3,1.5216485E-1,-1.0983105E-1,2.7225966E-2,-6.5711583E-3,5.5358887E-2,-3.8310964E-2,-1.2540998E-2,2.6818803E-2],"categories":[],"categories_nodes":[],"categories_segments":[],"categories_sizes":[],"default_left":[0,0,0,0,0,0,0,0,0],"id":82,"left_children":[1,3,5,-1,-1,7,-1,-1,-1],"loss_changes":[1.4188498E-1,1.089548E-1,2.5105408E-1,0E0,0E0,1.893358E-1,0E0,0E0,0E0],"parents":[2147483647,0,0,1,1,2,2,5,5],"right_children":[2,4,6,-1,-1,8,-1,-1,-1],"split_conditions":[-3.3878584E0,2.156E2,1.9127E2,2.7225966E-2,-6.5711583E-3,2.121293E2,-3.8310964E-2,-1.2540998E-2,2.6818803E-2],"split_indices":[8,0,1,0,0,10,0,0,0],"split_type":[0,0,0,0,0,0,0,0,0],"sum_hessian":[6.571787E0,2.4802723E0,4.0915146E0,1.438021E0,1.0422515E0,3.0470672E0,1.0444473E0,1.8697346E0,1.1773324E0],"tree_param":{"num_deleted":"0","num_feature":"16","num_nodes":"9","size_leaf_vector":"1"}},{"base_weights":[-4.0300353E-3,-8.164763E-2,2.1437675E-2,2.0687869E-2,-1.8777665E-1,-3.1757548E-1,1.186545E-3,-7.7209882E-3,-4.01346E-2,3.2356054E-2,-3.189261E-2],"categories":[],"categories_nodes":[],"categories_segments":[],"categories_sizes":[],"default_left":[0,0,0,0,0,0,0,0,0,0,0],